// Best Model Accuracy: 88.41% (Structure: 4-64-128-64-1)
#ifndef WEIGHTS_H
#define WEIGHTS_H

const float W1[64][4] = {
    {-0.183649f, -0.486463f, -0.108090f, 0.349913f},
    {0.185518f, 0.182507f, 0.183251f, -2.243316f},
    {0.204240f, 0.199725f, 0.194196f, 2.361897f},
    {0.462599f, 0.111586f, -0.462405f, 2.907825f},
    {0.068686f, -0.236267f, -0.406234f, -0.054295f},
    {0.381450f, -0.083681f, -0.129937f, -2.878195f},
    {0.202762f, 0.220230f, -0.389821f, 1.829239f},
    {-0.355696f, 0.548002f, -0.132054f, -2.080375f},
    {-0.298555f, -0.092040f, -0.463437f, -0.498270f},
    {0.033651f, 0.056302f, -0.147145f, 0.333176f},
    {-0.152676f, -0.468117f, -0.317712f, -0.020660f},
    {-0.338809f, -0.439635f, 0.258834f, 0.091743f},
    {0.227931f, 0.264262f, -0.417026f, 3.785545f},
    {-0.065817f, 0.105011f, 0.107194f, -2.595630f},
    {-0.276715f, 0.180319f, 0.169790f, -2.911460f},
    {-0.012348f, -0.136179f, 0.171047f, -3.373623f},
    {-0.171148f, -0.460343f, 0.282880f, 0.159452f},
    {-0.275765f, 0.018290f, -0.044108f, -0.483539f},
    {-0.427635f, 0.010656f, 0.105032f, 0.494988f},
    {0.034913f, -0.097439f, -0.222585f, 0.015538f},
    {0.146959f, -0.499806f, -0.139169f, 0.398568f},
    {0.311506f, -0.427340f, -0.281124f, 0.328275f},
    {-0.345432f, 0.012425f, 0.342997f, -1.012344f},
    {-0.400510f, 0.150123f, -0.267656f, -0.388439f},
    {0.230059f, -0.042071f, 0.076742f, 2.804013f},
    {0.022106f, 0.420618f, -0.469688f, 2.100381f},
    {-0.446386f, 0.084659f, -0.421808f, -0.393077f},
    {-0.439644f, -0.332404f, 0.185713f, 0.210415f},
    {-0.319673f, -0.332737f, 0.285109f, 0.283692f},
    {-0.341142f, 0.480190f, -0.333791f, -0.348468f},
    {0.147193f, -0.026131f, -0.378787f, -0.075798f},
    {-0.208950f, 0.199725f, 0.053026f, 3.373949f},
    {0.293865f, -0.050386f, -0.148710f, -2.847180f},
    {0.353839f, 0.373529f, -0.398863f, -2.864040f},
    {-0.122133f, 0.206504f, -0.497382f, 0.386548f},
    {-0.295783f, -0.125645f, -0.116999f, 0.232130f},
    {-0.016155f, -0.235319f, 0.370460f, -3.606720f},
    {0.290544f, -0.621528f, 0.316055f, 1.385337f},
    {0.055857f, -0.300116f, 0.242851f, 2.671873f},
    {0.493959f, -0.033859f, -0.327238f, -2.799951f},
    {0.113041f, -0.260332f, 0.207741f, -0.387780f},
    {-0.442479f, 0.312591f, 0.342917f, 2.438390f},
    {0.062080f, 0.335764f, 0.155289f, 2.471593f},
    {0.035036f, -0.004146f, -0.028182f, -1.181270f},
    {-0.212822f, -0.403363f, 0.294290f, -0.135053f},
    {0.152240f, -0.143935f, 0.134724f, 2.066786f},
    {0.019177f, -0.376774f, -0.489520f, -0.406576f},
    {-0.021507f, 0.044747f, -0.307513f, -0.356994f},
    {0.012289f, 0.409392f, -0.397037f, 1.945693f},
    {0.316925f, -0.197656f, -0.279879f, -0.316519f},
    {0.062972f, 0.078118f, -0.098739f, 3.238005f},
    {-0.382724f, 0.073384f, 0.039855f, -0.483062f},
    {0.068892f, 0.364332f, 0.050430f, -3.302224f},
    {0.376199f, 0.240644f, -0.524695f, -0.832028f},
    {0.232477f, -0.297645f, 0.095270f, -2.484029f},
    {0.421488f, -0.224382f, -0.191485f, 2.238345f},
    {0.141692f, -0.268427f, -0.305170f, 0.377893f},
    {0.221856f, 0.110721f, -0.256798f, 3.490774f},
    {-0.212634f, 0.413040f, -0.180853f, 2.997329f},
    {-0.446220f, 0.031461f, 0.008496f, 0.327643f},
    {-0.399053f, -0.488553f, 0.170032f, -0.141937f},
    {0.097787f, 0.025461f, -0.061517f, -1.267089f},
    {0.044824f, 0.259188f, -0.103466f, -3.492595f},
    {-0.334561f, 0.105282f, 0.263912f, 3.082028f},
};
const float B1[64] = {-0.014660f, -0.952439f, 0.208741f, 1.229890f, -0.291917f, 0.088454f, 0.108662f, -0.549793f, -0.407448f, -0.140458f, -0.315382f, 0.353903f, -0.127882f, 0.688066f, -0.758708f, 0.639446f, 0.292129f, -0.106200f, 0.206475f, 0.429941f, 0.535877f, -0.006036f, -2.055419f, 0.132415f, 0.528583f, 0.731571f, 0.347328f, 0.253408f, 0.365490f, 0.510417f, -0.267430f, 0.539386f, -0.385924f, -0.899080f, -0.417092f, 0.457536f, -0.696729f, -0.157113f, 0.195036f, -0.776640f, -2.033006f, 0.245925f, -0.630427f, 0.625408f, -0.335761f, 0.895670f, -0.474749f, -0.316779f, 1.127517f, -0.175041f, -0.822140f, -0.249151f, -1.248285f, 0.026496f, -0.518564f, 1.037029f, 0.446579f, -0.542666f, 0.272940f, 0.212911f, 0.588397f, -1.154265f, 0.453582f, 0.345607f};

const float W2[128][64] = {
    {0.105446f, 0.019967f, -0.061679f, -0.004186f, 0.096510f, 0.091409f, -0.087592f, 0.037026f, -0.048505f, 0.113534f, -0.022323f, 0.057492f, -0.029915f, 0.089951f, -0.088568f, 0.086205f, -0.001356f, 0.124815f, 0.020864f, 0.059710f, 0.033605f, -0.025048f, -0.087128f, 0.092529f, -0.104509f, 0.029514f, 0.145552f, 0.134919f, 0.145768f, 0.017678f, 0.043148f, 0.034987f, -0.084986f, -0.068864f, 0.042349f, 0.041617f, -0.058069f, 0.018703f, 0.018738f, -0.014505f, -0.087098f, -0.066055f, -0.051739f, 0.075074f, 0.027607f, 0.010747f, 0.112106f, 0.052377f, 0.111519f, -0.030975f, 0.046028f, 0.109441f, 0.069120f, 0.097882f, -0.073354f, 0.025681f, 0.135905f, -0.014300f, 0.114105f, 0.159431f, 0.091907f, -0.132758f, -0.104891f, 0.090905f},
    {0.043616f, -0.118026f, -0.114691f, 0.003675f, 0.051823f, -0.161780f, -0.022601f, 0.007684f, -0.117682f, 0.048254f, -0.087202f, -0.039020f, -0.082070f, 0.012782f, -0.008839f, -0.070150f, 0.032675f, -0.021676f, -0.017705f, -0.034392f, 0.046892f, -0.008024f, -0.078474f, -0.074959f, -0.019906f, 0.059013f, -0.075498f, 0.007886f, 0.064577f, -0.046595f, -0.037485f, -0.059488f, 0.046161f, 0.023403f, -0.005522f, 0.063434f, -0.087061f, 0.072553f, 0.028905f, -0.011866f, 0.054708f, 0.010670f, 0.079015f, -0.151862f, 0.040837f, -0.140879f, -0.032726f, 0.037567f, -0.012048f, 0.023220f, -0.007682f, 0.116231f, 0.043300f, -0.065657f, 0.099189f, -0.082064f, -0.115540f, -0.096154f, -0.060265f, -0.096222f, -0.002985f, -0.032487f, 0.075597f, 0.118271f},
    {-0.018077f, 0.060730f, 0.032343f, 0.147157f, 0.052606f, 0.028668f, -0.099428f, -0.331496f, -0.017691f, -0.111273f, 0.012977f, 0.163669f, 0.013702f, -0.083467f, -0.321446f, -0.851769f, 0.036018f, 0.045889f, 0.158556f, 0.122461f, 0.140301f, -0.047957f, 0.164859f, 0.148551f, 0.054128f, -0.054483f, 0.138254f, 0.134061f, 0.230833f, 0.099845f, -0.081438f, 0.242469f, -0.152907f, -0.120244f, -0.102449f, 0.010117f, -0.055749f, 0.082299f, 0.244532f, -0.192415f, -0.047119f, -0.052543f, 0.034246f, 0.031394f, -0.078849f, 0.135605f, 0.123455f, -0.122668f, 0.000464f, -0.014269f, 0.254851f, -0.108211f, -0.037844f, -0.079629f, -0.244819f, 0.386271f, 0.145944f, 0.170426f, 0.413555f, 0.117603f, 0.119307f, -0.130712f, -0.158184f, 0.321858f},
    {-0.055724f, -0.091876f, 0.075648f, 0.062292f, 0.106989f, -0.068973f, 0.089657f, 0.010602f, -0.006789f, 0.064809f, -0.051507f, 0.240606f, 0.210227f, -0.022039f, -0.288763f, -1.104511f, 0.152335f, -0.042068f, 0.028255f, 0.206781f, 0.093814f, 0.084906f, -0.105349f, 0.215665f, 0.046728f, -0.149008f, 0.207804f, 0.254046f, 0.127018f, 0.159165f, 0.011753f, 0.282237f, -0.145687f, -0.062687f, -0.029743f, 0.244988f, -0.114485f, 0.149527f, 0.401730f, -0.218991f, 0.048869f, 0.099981f, 0.087987f, -0.064101f, -0.049967f, -0.001730f, 0.075885f, -0.122495f, 0.084532f, 0.035398f, 0.300228f, 0.101498f, -0.129483f, 0.010365f, 0.012760f, 0.379001f, 0.092120f, 0.196018f, 0.723543f, 0.154652f, 0.180460f, 0.081103f, -0.073474f, 0.386602f},
    {0.076676f, 0.034123f, -0.124295f, -0.074185f, 0.106092f, -0.043020f, 0.016514f, -0.085105f, -0.047945f, 0.084582f, 0.041725f, 0.021758f, 0.059372f, -0.022253f, -0.036663f, 0.061593f, -0.037905f, 0.062743f, -0.088693f, 0.061129f, 0.016781f, 0.014721f, -0.059895f, -0.033321f, 0.050736f, 0.030266f, -0.040981f, -0.050980f, 0.008073f, -0.029070f, 0.026260f, -0.130046f, 0.071852f, -0.098101f, -0.116270f, 0.061622f, 0.030739f, -0.132109f, -0.008302f, 0.052674f, 0.016739f, -0.145710f, -0.106117f, -0.114951f, -0.076634f, -0.141873f, -0.014082f, -0.067077f, -0.026886f, 0.035461f, -0.004643f, -0.120930f, -0.030199f, 0.012075f, -0.119191f, 0.016765f, 0.070093f, 0.095178f, -0.151341f, -0.123168f, 0.037268f, 0.088379f, 0.094555f, 0.097352f},
    {0.019622f, -0.058291f, 0.069472f, -0.054312f, 0.068450f, 0.077133f, 0.075631f, -0.248931f, -0.057325f, -0.061593f, -0.104509f, -0.041412f, 0.185281f, 0.108109f, 0.100489f, -0.050151f, 0.147713f, -0.118640f, -0.132887f, -0.127120f, 0.033499f, -0.041416f, -0.066069f, 0.026387f, -0.061981f, -0.172559f, -0.150987f, -0.132127f, 0.049282f, 0.090859f, 0.075386f, 0.303277f, -0.045114f, -0.025015f, -0.076948f, -0.141644f, -0.183585f, -0.764497f, -0.284966f, -0.127332f, -0.592840f, 0.090045f, 0.005570f, 0.085984f, 0.199537f, -0.056854f, 0.025100f, 0.023593f, 0.505457f, -0.116740f, -0.191231f, 0.022922f, 0.120090f, 0.063971f, -0.408772f, -0.637664f, 0.005060f, -0.030258f, 1.146129f, -0.110846f, 0.053304f, -0.088427f, 0.052334f, 0.336584f},
    {-0.037088f, -0.138981f, 0.076150f, 0.047762f, -0.075890f, -0.146206f, -0.106161f, 0.238435f, -0.098665f, -0.057911f, 0.011730f, 0.156848f, -0.017286f, -0.104932f, 0.039773f, 0.094292f, -0.014688f, -0.044724f, 0.095823f, -0.017407f, 0.137011f, 0.044153f, -0.113680f, 0.041939f, -0.034042f, -0.069323f, 0.164007f, 0.149373f, 0.175901f, 0.196024f, 0.073484f, -0.114122f, -0.053316f, -0.007687f, 0.119066f, 0.174178f, 0.034119f, -0.075844f, -0.052694f, -0.180221f, -0.094407f, -0.106526f, 0.064273f, -0.018902f, 0.009845f, -0.097290f, 0.028541f, 0.010609f, 0.058598f, -0.069461f, 0.086610f, 0.014521f, 0.052650f, -0.100144f, 0.050423f, 0.081785f, -0.011177f, 0.109858f, 0.139928f, 0.132001f, 0.198922f, 0.071471f, -0.124250f, 0.076376f},
    {-0.025936f, -0.140150f, -0.047436f, 0.102874f, -0.090704f, -0.119677f, -0.039987f, -0.084401f, -0.028532f, 0.040730f, 0.032195f, 0.021250f, 0.079419f, -0.001730f, -0.022000f, 0.096375f, 0.235710f, -0.117558f, 0.134025f, 0.023187f, 0.075263f, -0.038636f, 0.042028f, 0.051279f, 0.004055f, -0.031399f, 0.163674f, 0.148512f, 0.227986f, 0.200101f, 0.056538f, -0.075552f, 0.030249f, -0.145043f, 0.071507f, 0.148322f, 0.066960f, 0.108061f, -0.119145f, 0.006762f, -0.046372f, -0.119604f, -0.004466f, 0.020872f, -0.101891f, 0.042712f, -0.014885f, -0.087565f, -0.080885f, 0.054794f, -0.042280f, 0.030127f, -0.001341f, 0.077504f, -0.119972f, 0.145492f, 0.154583f, 0.029024f, 0.006589f, 0.092785f, 0.024806f, -0.071049f, -0.051776f, -0.012329f},
    {0.038308f, -0.036291f, -0.028154f, -0.047358f, -0.016883f, 0.060566f, 0.057157f, 0.048527f, 0.063021f, -0.035020f, 0.086199f, -0.056819f, 0.097733f, 0.051028f, -0.014187f, 0.090981f, 0.015828f, -0.083561f, -0.068349f, 0.071957f, -0.093099f, 0.047889f, 0.088354f, -0.112094f, -0.072697f, 0.055272f, 0.081905f, -0.000362f, -0.093160f, 0.064670f, 0.065087f, 0.047363f, 0.028870f, -0.105410f, -0.087138f, 0.107914f, -0.061736f, -0.108576f, -0.022817f, 0.105349f, 0.007419f, -0.055034f, -0.069152f, -0.140444f, -0.080107f, 0.064957f, -0.063310f, 0.084129f, -0.032774f, -0.076208f, 0.078992f, -0.027522f, 0.013668f, -0.068384f, -0.013942f, -0.117239f, -0.083161f, -0.051333f, 0.093763f, -0.042828f, -0.037497f, 0.049152f, 0.062983f, 0.026809f},
    {0.025049f, -0.034326f, 0.061765f, -0.040093f, -0.013388f, 0.061163f, -0.106563f, 0.115169f, -0.060022f, -0.083333f, 0.016844f, 0.065716f, -0.068279f, 0.037275f, -0.095157f, -0.028431f, -0.053347f, 0.066810f, -0.117742f, -0.087998f, 0.013659f, 0.043387f, 0.049561f, 0.094731f, 0.053036f, 0.010535f, 0.094786f, -0.076767f, 0.025480f, 0.005971f, -0.041248f, -0.103418f, 0.019284f, 0.014867f, -0.084178f, -0.010327f, -0.029554f, -0.082367f, -0.121218f, 0.041622f, -0.051447f, -0.007908f, -0.107090f, -0.052254f, -0.059137f, 0.008354f, 0.115197f, 0.017474f, -0.004925f, -0.028524f, -0.017210f, -0.087160f, -0.062632f, 0.114814f, -0.089216f, -0.056202f, 0.091329f, 0.007850f, 0.091420f, 0.096264f, -0.102807f, 0.027261f, -0.095447f, -0.014635f},
    {-0.052270f, -0.076365f, -0.018232f, -0.335803f, 0.073701f, -0.092920f, -0.192110f, 0.345216f, -0.018386f, 0.025905f, 0.090271f, 0.098404f, -0.892045f, 0.124382f, 0.174133f, 0.530219f, 0.205329f, -0.040705f, 0.236644f, 0.093791f, 0.135553f, -0.099945f, 0.116473f, 0.106990f, -0.124641f, -0.462276f, 0.075746f, 0.133689f, 0.148428f, 0.114168f, 0.075199f, 0.155031f, -0.221998f, -0.121601f, 0.075208f, 0.047187f, 0.104692f, 0.097911f, -0.017355f, -0.800402f, -0.117329f, 0.127815f, 0.070585f, -0.030822f, 0.026525f, 0.042577f, 0.045724f, 0.035774f, -0.075201f, -0.025791f, -1.160062f, 0.067990f, -0.082110f, -0.402046f, -0.270632f, -0.695882f, 0.235194f, -1.337854f, 0.176403f, 0.105164f, 0.162186f, -0.098966f, 0.147840f, 0.349446f},
    {0.023109f, -0.029726f, -0.127424f, 0.032733f, 0.075226f, -0.034117f, -0.019994f, -0.050766f, 0.118057f, 0.023527f, 0.028389f, 0.074020f, -0.025045f, 0.011085f, 0.035688f, -0.026855f, 0.188401f, 0.061282f, 0.048460f, 0.124950f, 0.146022f, -0.068037f, -0.117285f, 0.031575f, -0.015689f, 0.157199f, 0.123287f, 0.087646f, 0.110740f, 0.179530f, 0.042324f, -0.020803f, -0.022180f, -0.104570f, -0.072769f, 0.198333f, 0.055651f, 0.121269f, 0.095825f, 0.064682f, -0.078893f, 0.082030f, -0.117437f, -0.117014f, -0.091367f, -0.040641f, -0.112205f, 0.079373f, 0.021595f, -0.038589f, -0.049481f, -0.057020f, 0.054530f, -0.098864f, 0.010076f, 0.052447f, 0.079760f, 0.136073f, 0.062858f, 0.009996f, 0.147417f, -0.042955f, 0.103064f, 0.179312f},
    {-0.044885f, 0.064647f, -0.026561f, -0.020977f, 0.039246f, -0.077337f, 0.109349f, 0.026588f, -0.063426f, 0.011934f, 0.124461f, 0.053174f, 0.000186f, 0.046776f, 0.007029f, -0.007243f, -0.029941f, 0.113993f, -0.055224f, 0.094105f, -0.048218f, 0.083429f, 0.105649f, 0.113067f, -0.080845f, 0.037148f, 0.117917f, 0.164553f, 0.122712f, 0.082314f, 0.097992f, 0.024005f, -0.032983f, -0.053653f, 0.113471f, 0.134905f, -0.084048f, 0.098281f, -0.053765f, -0.002393f, 0.077701f, -0.047486f, -0.020522f, 0.003688f, -0.056176f, -0.053694f, -0.017718f, 0.008560f, 0.076805f, -0.068755f, -0.119383f, 0.097981f, -0.100916f, -0.019680f, 0.048477f, 0.118708f, 0.021844f, -0.062716f, 0.161936f, 0.061564f, 0.169546f, 0.070854f, -0.106882f, -0.032346f},
    {0.121625f, 0.100774f, -0.133070f, -0.124029f, 0.065605f, 0.011734f, 0.044642f, 0.165156f, 0.102590f, -0.021781f, -0.120268f, -0.074933f, -0.060345f, 0.077525f, -0.022472f, -0.166038f, -0.165232f, 0.027254f, -0.123846f, 0.031658f, 0.048428f, 0.026439f, 0.134920f, -0.019762f, -0.014068f, -0.135329f, -0.004225f, -0.073001f, 0.103698f, -0.112360f, -0.049648f, 0.066829f, 0.043439f, -0.087916f, -0.036719f, -0.100345f, -0.116730f, 0.059944f, -0.071381f, 0.108298f, -0.010543f, -0.042008f, -0.033800f, 0.094012f, -0.023929f, -0.113367f, -0.015717f, -0.109076f, -0.053548f, -0.083351f, 0.167410f, 0.115582f, 0.059782f, 0.091211f, 0.104956f, -0.182126f, 0.008924f, 0.083585f, 0.027243f, 0.016374f, 0.003172f, 0.042935f, -0.092419f, -0.075793f},
    {-0.095214f, -0.070031f, 0.058338f, 0.094879f, -0.021951f, -0.009525f, -0.023437f, -0.027535f, -0.051687f, -0.094355f, 0.115071f, 0.106255f, -0.015174f, 0.018938f, 0.057667f, 0.077456f, 0.020304f, 0.113557f, 0.046322f, 0.222158f, 0.139162f, 0.056558f, 0.021802f, 0.212155f, -0.067535f, 0.084556f, 0.070816f, 0.218877f, 0.134993f, 0.047916f, -0.105929f, 0.014332f, 0.007225f, -0.104403f, 0.028988f, 0.143327f, 0.018128f, -0.097850f, -0.102606f, 0.088492f, -0.096574f, -0.017815f, -0.016696f, 0.039322f, 0.005123f, 0.038715f, 0.020744f, 0.099698f, 0.101837f, -0.083293f, -0.006521f, -0.082401f, -0.066003f, -0.113513f, 0.096554f, 0.139739f, 0.083969f, 0.075774f, 0.115210f, 0.059709f, 0.195559f, -0.046902f, 0.059568f, -0.053295f},
    {0.040577f, -0.121416f, -0.077767f, -0.036538f, -0.119833f, -0.133071f, 0.012913f, 0.013984f, 0.012581f, -0.120066f, 0.071634f, 0.070817f, -0.003930f, 0.044918f, 0.056660f, 0.048785f, -0.029574f, 0.017766f, 0.076873f, -0.061516f, 0.069681f, -0.016236f, 0.038448f, 0.031440f, 0.061551f, 0.053374f, 0.043765f, -0.085925f, -0.004106f, -0.009856f, 0.069259f, -0.122519f, 0.095012f, 0.053521f, 0.055873f, 0.070400f, 0.086347f, -0.015358f, -0.087993f, 0.111020f, 0.040494f, 0.032865f, -0.133853f, -0.093987f, 0.088659f, -0.051178f, 0.054327f, 0.011962f, 0.078010f, -0.041920f, -0.019372f, 0.077677f, -0.026906f, -0.118308f, 0.074232f, -0.102441f, 0.095559f, -0.078482f, -0.056255f, 0.012021f, 0.007109f, 0.049133f, -0.044530f, 0.048309f},
    {0.024644f, 0.035343f, -0.160654f, 0.136567f, 0.120101f, -0.021465f, -0.011933f, -0.081988f, 0.065277f, -0.032944f, -0.000647f, 0.076940f, -0.140018f, 0.018243f, -0.232712f, 0.088972f, 0.053241f, 0.100069f, 0.087504f, -0.027279f, 0.069418f, 0.033090f, -0.028196f, 0.109721f, 0.023646f, -0.146556f, -0.106092f, 0.078953f, 0.097726f, -0.102918f, 0.087924f, 0.077358f, 0.031969f, -0.094256f, 0.067001f, 0.070234f, -0.085911f, 0.132950f, 0.019502f, 0.072765f, -0.023372f, -0.140688f, -0.072344f, -0.024192f, 0.000041f, 0.099473f, -0.004503f, 0.064240f, 0.043792f, -0.087794f, 0.051125f, -0.018370f, -0.014009f, -0.084152f, 0.056852f, 0.301791f, -0.088646f, -0.162069f, -0.127517f, 0.003824f, -0.070112f, 0.038905f, 0.056337f, -0.060049f},
    {-0.124420f, -0.129032f, 0.015225f, 0.140581f, -0.070143f, 0.012902f, -0.057388f, 0.031786f, -0.069631f, -0.088566f, 0.013863f, 0.131676f, -0.041611f, -0.099552f, -0.134063f, -0.031854f, 0.207520f, -0.030972f, 0.171313f, 0.209797f, 0.035288f, -0.042119f, -0.003536f, 0.249601f, -0.119438f, 0.194868f, 0.090062f, 0.160057f, 0.181003f, 0.232901f, 0.053380f, -0.025910f, -0.159666f, 0.049309f, -0.101327f, 0.199121f, -0.136622f, -0.079472f, 0.164223f, -0.105118f, -0.095127f, 0.016130f, 0.112125f, -0.028144f, 0.020421f, 0.090986f, 0.117041f, -0.093431f, 0.029736f, -0.078243f, 0.019972f, 0.082127f, -0.066808f, -0.110976f, -0.146194f, 0.049755f, 0.082408f, -0.078833f, 0.090499f, 0.198975f, 0.250227f, -0.028233f, -0.031150f, 0.003373f},
    {0.005313f, -0.013575f, -0.001768f, -0.012083f, 0.072199f, -0.202207f, 0.063149f, -1.018363f, -0.085501f, -0.017244f, -0.030934f, 0.009082f, 0.066517f, 0.028772f, -0.150861f, -1.047703f, 0.281606f, 0.097169f, 0.069668f, 0.087223f, 0.034215f, -0.083973f, 0.053755f, 0.096037f, 0.069414f, 0.520987f, -0.059372f, 0.095346f, -0.062625f, 0.140845f, 0.002944f, 0.224724f, -0.124246f, -0.118061f, -0.003491f, -0.054873f, -0.031858f, 0.265137f, 0.419374f, -0.146528f, 0.164436f, 0.083033f, 0.116507f, -0.151346f, 0.125766f, -0.088640f, -0.093770f, -0.082323f, -0.080803f, -0.110024f, 0.279515f, 0.002994f, 0.074876f, 0.075903f, 0.025892f, -0.048070f, 0.069172f, 0.197674f, 0.249064f, -0.112518f, 0.056865f, -0.124768f, -0.128629f, 0.274765f},
    {0.051950f, 0.018351f, -0.109701f, -0.118971f, -0.059596f, 0.065803f, 0.050621f, 0.119122f, 0.036516f, -0.053707f, 0.026133f, 0.093912f, -0.083567f, -0.086314f, 0.118771f, -0.009629f, -0.073717f, 0.103015f, 0.050993f, 0.065542f, -0.124366f, 0.063637f, 0.032862f, 0.069583f, -0.063080f, -0.090335f, -0.080962f, 0.102601f, 0.042802f, -0.122881f, 0.012404f, -0.087697f, 0.044627f, 0.016781f, -0.068968f, -0.053896f, 0.025141f, -0.085699f, 0.115807f, 0.115628f, 0.059316f, 0.022948f, 0.005428f, -0.039025f, 0.071470f, -0.110354f, 0.028356f, -0.101223f, -0.024818f, 0.088098f, -0.044481f, 0.013291f, -0.094488f, 0.030675f, -0.096642f, -0.103119f, 0.044205f, -0.102838f, 0.018214f, 0.111010f, -0.054658f, 0.060344f, 0.076681f, -0.011586f},
    {-0.036405f, -0.007551f, -0.025640f, -0.009848f, -0.073560f, 0.076299f, -0.100809f, -0.089936f, 0.044871f, 0.011916f, 0.021802f, -0.025713f, 0.102810f, -0.090632f, 0.057421f, -0.176612f, -0.028003f, -0.081296f, -0.013185f, -0.043414f, -0.004345f, -0.037567f, -0.083154f, -0.077259f, -0.011212f, -0.040699f, -0.056205f, -0.002331f, 0.143370f, -0.092844f, 0.056892f, 0.009353f, -0.140603f, 0.058774f, -0.078483f, -0.085196f, -0.076604f, 0.044051f, -0.012763f, 0.064502f, 0.043660f, -0.141342f, -0.118480f, -0.081522f, 0.074437f, -0.062794f, -0.111867f, 0.106950f, -0.085689f, 0.044605f, -0.091566f, -0.054895f, -0.054400f, -0.141449f, -0.123477f, 0.119309f, 0.086483f, -0.140501f, -0.047816f, 0.012996f, 0.075354f, 0.038355f, -0.035715f, -0.211262f},
    {0.116145f, -0.138239f, -0.044081f, 0.072847f, 0.016678f, 0.061892f, 0.016573f, -0.063143f, -0.105720f, 0.026458f, -0.055835f, -0.051680f, 0.048768f, 0.102462f, -0.028651f, -0.011817f, 0.062232f, 0.107172f, -0.003458f, -0.089381f, -0.070423f, -0.107301f, -0.071693f, -0.066810f, 0.022829f, -0.024731f, 0.087134f, -0.066751f, 0.031190f, -0.109192f, -0.067259f, 0.013713f, -0.094952f, -0.020581f, -0.090669f, -0.149010f, 0.005540f, -0.005469f, 0.066197f, 0.062229f, 0.103439f, 0.007052f, 0.020845f, -0.075394f, -0.094514f, 0.111660f, -0.069140f, 0.102765f, 0.093726f, -0.048689f, -0.026789f, 0.024112f, -0.020381f, -0.029696f, -0.094485f, 0.096258f, 0.049600f, -0.068689f, -0.008464f, -0.058301f, -0.018857f, -0.029619f, -0.084379f, 0.104198f},
    {-0.059591f, -0.044742f, 0.063558f, 0.075141f, -0.030143f, 0.048738f, 0.016136f, -0.050668f, 0.065660f, 0.026242f, -0.059307f, -0.115675f, -0.130451f, 0.028891f, -0.038014f, 0.121358f, -0.014072f, -0.072015f, -0.067666f, 0.117181f, -0.009950f, -0.107057f, -0.128564f, 0.026924f, 0.073240f, 0.001582f, -0.114291f, -0.071398f, 0.059917f, 0.092330f, -0.123815f, -0.105050f, -0.020365f, -0.060415f, -0.012479f, -0.122647f, -0.065090f, -0.005159f, 0.092988f, 0.050140f, -0.082220f, -0.142759f, -0.146927f, -0.032242f, -0.078317f, -0.124207f, 0.002876f, -0.043615f, -0.012747f, 0.061359f, -0.031218f, 0.039040f, 0.082539f, 0.056600f, -0.109829f, -0.045736f, -0.124280f, 0.091417f, 0.033051f, -0.090376f, 0.086857f, -0.117531f, -0.130065f, 0.038252f},
    {0.014078f, -0.001564f, -0.015437f, -0.009027f, 0.105822f, -0.137318f, -0.052158f, -0.002127f, 0.104214f, 0.084282f, 0.050711f, 0.090712f, 0.084360f, 0.033376f, 0.074702f, 0.098261f, -0.018059f, -0.017253f, -0.031205f, -0.038337f, -0.018369f, 0.110702f, -0.002095f, 0.116305f, -0.105820f, -0.029306f, -0.038134f, 0.059275f, -0.042741f, -0.049392f, 0.106061f, 0.065733f, 0.042376f, -0.049100f, -0.101714f, -0.093862f, -0.069521f, -0.024504f, 0.026260f, 0.023631f, -0.038882f, -0.095324f, -0.036499f, -0.108131f, 0.056741f, -0.135949f, 0.093555f, -0.030889f, -0.002403f, -0.071694f, -0.119442f, -0.123572f, 0.094129f, -0.085548f, -0.101196f, 0.120641f, -0.090571f, 0.076943f, 0.031243f, 0.009332f, 0.101154f, 0.089313f, -0.067442f, -0.095324f},
    {0.016679f, -0.057662f, 0.014991f, 0.028243f, 0.097144f, 0.036309f, -0.411236f, -0.324045f, -0.123155f, 0.084322f, 0.100691f, 0.004795f, -0.038256f, 0.062961f, 0.019377f, 0.451728f, -0.038832f, -0.092488f, 0.100281f, 0.175877f, -0.017258f, -0.095509f, -0.649091f, 0.208304f, 0.016461f, -0.297510f, 0.021093f, 0.092611f, 0.169986f, 0.208667f, -0.071397f, 0.288771f, -0.162131f, -0.056350f, -0.076661f, 0.148757f, -0.083569f, -0.407191f, 0.020894f, -0.258897f, -0.417909f, 0.119585f, -0.037563f, 0.114954f, -0.018161f, 0.156388f, 0.102260f, 0.057304f, 0.225042f, 0.003507f, -0.729644f, -0.016809f, 0.018404f, -0.172906f, -0.154033f, 0.143498f, 0.017949f, -0.343906f, 0.122283f, 0.059416f, 0.117931f, -0.035835f, 0.178967f, 0.273861f},
    {-0.010698f, -0.074453f, -0.065834f, -0.020679f, 0.108631f, -0.034695f, -0.043286f, 0.099325f, 0.067406f, 0.084858f, 0.040437f, -0.006720f, -0.032343f, 0.072666f, 0.050197f, -0.081511f, 0.032295f, 0.025981f, 0.163266f, -0.001870f, 0.013092f, -0.073536f, -0.148258f, 0.045100f, -0.137416f, 0.156557f, 0.081473f, 0.178195f, -0.021315f, 0.055901f, 0.080266f, 0.017260f, -0.040952f, 0.038695f, 0.033130f, 0.132196f, 0.039898f, -0.095291f, -0.003054f, -0.102159f, -0.106689f, -0.044426f, -0.035939f, -0.027274f, -0.049529f, -0.048014f, 0.108105f, 0.090974f, 0.111805f, -0.047426f, 0.076575f, 0.074729f, 0.046869f, -0.053719f, -0.174133f, -0.021279f, -0.034091f, 0.007566f, 0.157841f, 0.057874f, 0.130978f, -0.100182f, 0.047875f, -0.032263f},
    {0.024850f, 0.018465f, 0.024294f, -0.268926f, 0.007310f, -0.175076f, -1.226050f, 0.918186f, 0.086763f, -0.110802f, 0.083004f, 0.211896f, -0.012739f, -0.027418f, 0.294360f, -0.072481f, 0.511341f, -0.109784f, 0.130909f, 0.132445f, 0.220985f, 0.009283f, 0.042092f, 0.257921f, -0.154235f, -0.384197f, 0.314462f, 0.219110f, 0.125258f, 0.251590f, 0.055281f, 0.183826f, -0.242179f, -0.119266f, 0.003389f, 0.179682f, -0.148968f, -0.299062f, -0.163190f, -0.886082f, -0.186438f, 0.147064f, 0.096561f, -0.048252f, 0.212406f, -0.055041f, 0.020724f, 0.059518f, 0.518207f, -0.108947f, 0.102543f, -0.023646f, -0.037983f, -1.376467f, -0.178145f, -3.501886f, 0.344103f, -0.238737f, 0.667387f, 0.285772f, 0.283249f, -0.059053f, -0.009016f, 0.339949f},
    {0.063444f, 0.019971f, 0.043541f, -0.060769f, 0.105709f, -0.120921f, 0.001513f, -0.127655f, 0.106341f, 0.016364f, -0.063573f, -0.001122f, -0.009927f, -0.132065f, 0.045894f, -0.152221f, 0.092934f, 0.026984f, 0.058913f, 0.201583f, 0.218803f, 0.005222f, -0.150886f, 0.208302f, 0.056216f, 0.091982f, 0.034531f, 0.066745f, 0.195594f, 0.163402f, 0.058708f, -0.065930f, -0.100294f, 0.075885f, -0.092044f, 0.085854f, -0.020996f, -0.038584f, 0.114684f, 0.055643f, -0.004183f, -0.147495f, -0.025745f, -0.066585f, -0.021512f, -0.115516f, -0.123728f, 0.060376f, -0.024280f, 0.054375f, -0.067609f, -0.088335f, -0.038150f, 0.028701f, -0.166072f, 0.062039f, 0.224528f, -0.076843f, -0.024660f, 0.138211f, 0.129913f, 0.015107f, -0.115779f, -0.076205f},
    {0.050458f, 0.068752f, -0.086101f, -0.029448f, 0.015274f, -0.064522f, 0.071633f, -0.068092f, -0.119566f, 0.090441f, -0.062176f, 0.034246f, 0.088224f, -0.055077f, -0.035115f, 0.030413f, 0.101509f, 0.043840f, 0.217688f, 0.080794f, 0.109033f, -0.104587f, 0.045943f, 0.045347f, -0.062469f, 0.054439f, 0.214648f, 0.108660f, 0.107903f, 0.178300f, 0.027172f, 0.034968f, 0.032390f, 0.025801f, -0.063461f, 0.010067f, -0.099163f, -0.001217f, -0.021385f, -0.149320f, -0.006151f, 0.058339f, -0.037869f, -0.086609f, -0.123118f, 0.005343f, 0.064031f, -0.019538f, -0.016286f, 0.025159f, -0.081667f, 0.025314f, -0.090912f, -0.121019f, -0.006845f, 0.073939f, 0.219172f, -0.019836f, 0.132301f, 0.214120f, 0.156471f, -0.069547f, 0.035026f, -0.056826f},
    {-0.084649f, -0.095343f, -0.107254f, -0.032347f, 0.041433f, 0.056264f, -0.028655f, -0.032450f, -0.086548f, -0.119276f, -0.124288f, -0.002079f, -0.005140f, -0.072088f, 0.110800f, -0.034454f, -0.051290f, -0.031452f, -0.031595f, -0.079194f, -0.044915f, -0.054273f, 0.085980f, -0.114386f, 0.026639f, -0.016240f, 0.044839f, -0.069034f, 0.082874f, -0.088720f, 0.014479f, -0.121360f, 0.089594f, 0.123494f, 0.026103f, -0.062294f, -0.102306f, -0.073669f, 0.008350f, -0.042535f, -0.074934f, 0.022409f, -0.083596f, 0.056391f, 0.012714f, 0.010176f, 0.078083f, 0.090343f, -0.048206f, 0.115986f, -0.022678f, -0.111137f, -0.023119f, -0.065918f, 0.086096f, 0.091686f, 0.105832f, 0.077234f, 0.036613f, -0.029173f, -0.103526f, 0.042649f, 0.110476f, 0.059722f},
    {0.113030f, 0.039731f, -0.015925f, 0.124278f, 0.071121f, 0.143180f, 0.040575f, -1.450634f, 0.014784f, -0.026272f, 0.088186f, 0.069181f, -0.183335f, 0.114817f, -0.060228f, 0.407127f, 0.175891f, 0.056286f, 0.192946f, 0.100814f, 0.219695f, 0.023202f, 0.416039f, 0.096107f, -0.041994f, -0.272941f, 0.110450f, 0.217176f, 0.136728f, 0.208538f, -0.000368f, -0.102367f, -0.024972f, 0.075355f, 0.008215f, 0.040379f, 0.072919f, -0.064761f, -0.236294f, 0.192179f, -0.041639f, -0.138519f, 0.037712f, 0.038108f, -0.089431f, -0.015709f, 0.021467f, -0.025906f, 0.028923f, 0.032423f, -0.281198f, -0.008695f, 0.059998f, 0.100751f, 0.146306f, -0.012626f, 0.177999f, -0.112660f, -0.361510f, 0.162380f, 0.117358f, 0.023299f, 0.041492f, -0.367504f},
    {-0.027776f, 0.041878f, -0.134122f, -0.069357f, 0.096854f, 0.069194f, 0.091444f, 0.834865f, -0.091235f, 0.035178f, 0.034752f, 0.082025f, 0.059811f, -0.105206f, 0.093735f, 0.510110f, -0.196125f, -0.080779f, -0.059960f, -0.085946f, -0.037055f, 0.002696f, -0.211717f, -0.002789f, -0.025500f, -0.308100f, 0.022132f, -0.105212f, -0.102916f, -0.033820f, -0.051346f, -0.187404f, 0.165957f, 0.213285f, -0.075710f, -0.032183f, 0.152019f, 0.091163f, -0.249706f, 0.255664f, 0.152725f, -0.126459f, -0.010369f, -0.042562f, -0.027424f, -0.091378f, 0.047088f, 0.118132f, 0.104641f, -0.036809f, -0.230674f, -0.023940f, 0.092148f, 0.142921f, 0.090871f, -0.178877f, 0.111207f, 0.000940f, -0.224471f, 0.022534f, -0.025556f, 0.044741f, 0.114569f, -0.337084f},
    {-0.075795f, 0.079182f, 0.078756f, 0.094803f, 0.008366f, -0.088477f, -0.130689f, -0.740599f, 0.028801f, -0.038239f, -0.013636f, -0.043819f, -0.137291f, 0.014841f, 0.064108f, -0.125643f, 0.193157f, -0.044867f, 0.049390f, -0.000749f, -0.059694f, -0.005320f, -0.015555f, 0.081647f, -0.137777f, -0.066528f, 0.074520f, 0.112354f, 0.106513f, -0.094933f, 0.108277f, 0.113060f, -0.045589f, -0.080649f, -0.121178f, -0.043485f, -0.008598f, -0.034238f, 0.004403f, -0.010355f, 0.029326f, -0.101848f, 0.087206f, -0.128496f, 0.153461f, -0.133967f, -0.108268f, 0.062495f, 0.039020f, -0.104013f, -0.049692f, 0.000401f, -0.123559f, 0.056791f, 0.058445f, -0.155356f, -0.115279f, 0.006179f, 0.226055f, 0.015914f, 0.049766f, -0.055670f, -0.130976f, -0.016036f},
    {0.040755f, -0.113772f, -0.045465f, -0.032974f, -0.043823f, 0.103561f, -0.013339f, 0.064835f, 0.056003f, 0.019162f, 0.039696f, 0.233642f, -0.006782f, 0.075582f, -0.036154f, -0.024306f, 0.231678f, -0.093118f, 0.191421f, 0.241223f, 0.077762f, 0.104296f, -0.096468f, 0.084387f, 0.057107f, 0.050499f, 0.191085f, 0.241466f, 0.073933f, 0.232895f, -0.007583f, 0.131000f, -0.028285f, -0.101265f, -0.101720f, 0.113422f, -0.143750f, -0.032281f, 0.113741f, 0.064441f, -0.140076f, 0.103103f, -0.070754f, 0.098386f, -0.003962f, -0.031151f, 0.116711f, 0.048040f, 0.008264f, 0.034234f, 0.027640f, -0.022485f, 0.028344f, -0.012133f, -0.065061f, 0.195273f, 0.127410f, 0.104406f, 0.166126f, 0.013355f, 0.118328f, -0.112462f, 0.004814f, -0.024486f},
    {-0.007663f, -0.004486f, 0.076561f, -0.009139f, -0.004746f, -0.091395f, 0.026633f, -0.012493f, -0.110180f, -0.107498f, -0.103956f, -0.023595f, 0.109606f, -0.117898f, -0.081467f, 0.088842f, -0.086666f, -0.063616f, 0.035876f, 0.084068f, 0.115712f, 0.075173f, -0.118344f, 0.063586f, 0.010021f, -0.070498f, -0.115715f, -0.063486f, -0.088476f, 0.036768f, 0.067755f, 0.097404f, 0.114302f, 0.044693f, -0.003998f, -0.028799f, -0.038129f, -0.021385f, -0.112057f, 0.087081f, 0.052782f, -0.005864f, 0.010530f, -0.057235f, 0.065970f, -0.121013f, -0.114314f, 0.084691f, -0.009672f, 0.100577f, 0.093836f, 0.081488f, -0.056562f, -0.105401f, 0.106049f, 0.024904f, -0.118445f, -0.117279f, -0.039228f, -0.072716f, -0.074974f, -0.067001f, -0.116257f, -0.006547f},
    {0.019826f, -0.026500f, 0.020618f, 0.134419f, -0.043513f, -0.080675f, 0.056314f, -0.169537f, 0.110995f, -0.040639f, 0.062189f, 0.019862f, -0.040340f, 0.030424f, -0.331624f, 0.213523f, -0.024946f, -0.040024f, 0.158385f, 0.097754f, -0.041711f, 0.073977f, 0.027339f, 0.011144f, 0.079985f, -0.217124f, 0.014784f, 0.013209f, -0.010364f, -0.062269f, 0.050889f, 0.025670f, -0.111768f, -0.162228f, -0.034103f, 0.111792f, -0.059366f, 0.029852f, -0.004267f, 0.044619f, -0.051233f, -0.179415f, -0.041887f, 0.054684f, -0.033520f, 0.028340f, -0.084291f, -0.102646f, -0.126929f, 0.068552f, -0.040770f, 0.015977f, -0.135211f, 0.009341f, -0.062468f, 0.536451f, 0.101784f, -0.027799f, -0.656261f, 0.133639f, 0.100535f, 0.056166f, -0.039741f, -0.235018f},
    {0.087885f, -0.074662f, 0.086264f, 0.023810f, -0.070332f, -0.109936f, 0.046275f, -0.262284f, 0.051939f, 0.121090f, -0.086899f, 0.090302f, 0.100421f, -0.067150f, -0.087513f, 0.026435f, 0.067751f, -0.035057f, 0.146999f, 0.138101f, 0.024425f, -0.057087f, -0.164692f, 0.078340f, -0.100007f, 0.058698f, 0.113658f, 0.038230f, 0.156151f, 0.036276f, 0.079822f, 0.075672f, -0.038212f, -0.104588f, -0.021737f, 0.152035f, -0.089913f, 0.089991f, -0.067538f, -0.136923f, -0.144957f, 0.012748f, 0.079843f, -0.005900f, -0.082194f, 0.035787f, 0.107921f, -0.051313f, 0.047072f, 0.044271f, -0.075845f, -0.105773f, -0.097792f, -0.078097f, -0.154085f, 0.061979f, 0.153300f, -0.087944f, -0.065734f, 0.115713f, 0.227304f, -0.042866f, 0.013802f, 0.116715f},
    {-0.108203f, 0.065309f, 0.030505f, -0.211644f, 0.074377f, 0.006454f, 0.459239f, -0.571722f, 0.062827f, 0.081181f, -0.033313f, -0.045615f, -0.921425f, -0.028293f, 0.127494f, 0.705763f, 0.076055f, 0.104784f, 0.128314f, 0.064268f, 0.128565f, 0.105069f, -0.031778f, -0.066204f, 0.058965f, -0.309865f, -0.086704f, 0.033168f, -0.105092f, -0.086009f, -0.021577f, 0.055036f, 0.167012f, -0.134370f, 0.087267f, 0.110379f, 0.127480f, 0.045494f, 0.269923f, -0.276208f, 0.313946f, 0.136634f, -0.028255f, 0.029171f, 0.176392f, 0.119757f, 0.037403f, -0.073185f, -0.719184f, 0.049691f, -0.472764f, -0.050028f, -0.016847f, -0.122142f, -0.465907f, -0.792130f, -0.060257f, -0.823461f, -0.252222f, -0.021563f, -0.063434f, 0.060029f, 0.108936f, 0.064659f},
    {0.056510f, -0.082585f, -0.110409f, 0.096784f, 0.064620f, -0.068251f, 0.081984f, -0.047629f, 0.116087f, -0.092200f, 0.098589f, -0.092145f, 0.048972f, 0.000002f, 0.055332f, 0.004654f, 0.092370f, 0.039727f, -0.019434f, 0.089703f, -0.041547f, 0.030040f, 0.073173f, 0.070224f, -0.113484f, 0.086941f, -0.080720f, -0.063604f, 0.128098f, -0.111419f, -0.024597f, -0.072686f, -0.092549f, 0.015578f, 0.040909f, -0.105279f, -0.141633f, -0.104242f, -0.200352f, 0.061545f, 0.074122f, 0.039713f, 0.074709f, 0.074172f, -0.070665f, 0.045111f, 0.030316f, 0.086354f, -0.034458f, -0.014829f, 0.052474f, -0.028266f, 0.029236f, -0.047735f, -0.069598f, -0.060547f, 0.022915f, -0.130058f, -0.096367f, 0.037442f, 0.036581f, 0.059534f, 0.062063f, -0.247325f},
    {0.108298f, -0.117559f, -0.122452f, -0.097015f, -0.044589f, 0.065251f, 0.115813f, -0.054197f, 0.009631f, -0.074414f, 0.033209f, -0.042614f, -0.066544f, -0.098439f, -0.112163f, -0.095307f, -0.011963f, 0.071196f, 0.048517f, 0.069566f, -0.084828f, -0.006030f, 0.111026f, 0.009838f, -0.065886f, 0.054290f, 0.010139f, -0.056105f, -0.006877f, -0.113845f, -0.082386f, -0.026674f, -0.040914f, -0.007605f, -0.109271f, 0.042379f, -0.061720f, -0.004563f, 0.106590f, 0.042326f, 0.036937f, -0.059326f, 0.120999f, -0.075696f, 0.101105f, 0.056593f, -0.070861f, -0.111588f, -0.100438f, -0.041344f, -0.090247f, 0.122009f, -0.038705f, -0.024802f, 0.012662f, -0.059196f, 0.100042f, -0.068821f, 0.086631f, 0.101749f, -0.014881f, 0.103370f, 0.104943f, 0.038738f},
    {0.102722f, -0.015485f, -0.065876f, 0.021578f, 0.095087f, -0.102334f, 0.112708f, -0.097389f, 0.069893f, -0.057959f, 0.100291f, 0.011986f, 0.042579f, 0.115451f, -0.118162f, -0.015214f, 0.094069f, -0.054181f, -0.001935f, -0.012855f, 0.117346f, -0.130564f, -0.096870f, 0.053102f, -0.048859f, 0.112297f, 0.103133f, 0.165404f, 0.034366f, 0.198007f, -0.118236f, 0.049783f, 0.054488f, -0.054675f, 0.074122f, 0.068748f, 0.039707f, 0.041659f, -0.071750f, 0.037492f, 0.048700f, 0.059996f, -0.042775f, -0.115232f, 0.027005f, -0.042568f, 0.008684f, -0.019708f, 0.107492f, 0.114664f, 0.008938f, 0.057740f, 0.045284f, -0.093904f, 0.111761f, 0.074047f, 0.206921f, 0.065548f, 0.001935f, 0.118141f, 0.030703f, -0.003876f, 0.010021f, 0.064241f},
    {0.084378f, -0.067742f, -0.077815f, 0.098417f, -0.000464f, 0.055393f, 0.027794f, -0.083747f, 0.109740f, -0.016459f, 0.110763f, 0.051898f, 0.032887f, 0.032271f, -0.110159f, -0.029216f, 0.054369f, -0.020218f, 0.018851f, 0.053359f, -0.012038f, 0.124590f, 0.010599f, -0.104133f, -0.106615f, 0.006448f, -0.089700f, 0.000759f, 0.106322f, 0.068411f, 0.060828f, -0.026098f, -0.096648f, 0.035058f, -0.090473f, 0.062527f, 0.093891f, 0.015777f, 0.005729f, 0.124891f, 0.039389f, -0.005698f, -0.099042f, 0.074154f, 0.113415f, -0.096364f, -0.079331f, -0.046468f, 0.069216f, -0.097913f, 0.051242f, 0.048459f, 0.107799f, 0.012999f, -0.065331f, 0.011916f, -0.036594f, -0.087211f, 0.075153f, 0.035346f, -0.084283f, -0.058119f, 0.057582f, -0.099224f},
    {0.061932f, -0.078841f, -0.123820f, 0.066600f, 0.017421f, -0.118009f, -0.119637f, -0.009408f, -0.115266f, 0.089994f, 0.079257f, 0.508527f, 0.123555f, -0.065092f, 0.075055f, 0.025071f, 0.518022f, -0.008465f, 0.487091f, 0.324359f, 0.276751f, -0.029255f, -0.123687f, 0.438859f, 0.011751f, -0.041388f, 0.372892f, 0.346326f, 0.472652f, 0.484605f, -0.049615f, 0.067147f, -0.138665f, 0.041549f, -0.022362f, 0.310207f, -0.106563f, -0.138696f, -0.120484f, -0.152600f, 0.008595f, -0.123635f, 0.028315f, 0.038184f, -0.122103f, -0.061543f, -0.070930f, 0.110710f, 0.079620f, -0.015139f, -0.122526f, 0.058892f, 0.016566f, -0.007648f, 0.040768f, 0.436630f, 0.381158f, -0.087638f, 0.144403f, 0.454024f, 0.277273f, 0.061752f, 0.003460f, 0.149028f},
    {-0.090023f, 0.030939f, -0.125976f, -0.019645f, 0.058601f, 0.082256f, 0.054485f, -0.102924f, 0.103494f, 0.030040f, -0.112419f, -0.008172f, -0.070073f, 0.021402f, 0.033192f, -0.133451f, 0.222299f, -0.100354f, -0.099151f, 0.110826f, 0.015559f, 0.041524f, 0.093069f, 0.070139f, 0.055253f, -0.005897f, -0.091487f, -0.071548f, -0.006738f, 0.097514f, -0.089620f, -0.094669f, -0.080017f, -0.066987f, -0.076988f, -0.032363f, 0.098827f, 0.025567f, -0.041035f, -0.112801f, 0.021383f, -0.045665f, -0.015146f, 0.013130f, 0.149090f, -0.121487f, -0.048888f, -0.051289f, -0.047140f, -0.047595f, -0.068614f, 0.089501f, -0.040948f, -0.125697f, 0.090978f, -0.052562f, 0.037319f, -0.042406f, -0.128290f, -0.027217f, -0.014561f, 0.032123f, 0.012892f, -0.022597f},
    {-0.016570f, 0.071931f, -0.097825f, -0.084166f, 0.090055f, 0.000358f, 0.040381f, 0.055399f, 0.052800f, -0.094817f, 0.120032f, 0.080405f, 0.034652f, -0.148599f, -0.137370f, 0.055325f, 0.198560f, -0.070476f, 0.238192f, 0.216600f, 0.156158f, 0.129127f, -0.010029f, 0.016970f, -0.061573f, 0.150438f, 0.191823f, 0.012236f, 0.060053f, 0.048717f, -0.066073f, -0.051709f, -0.016847f, 0.046086f, 0.077722f, 0.228834f, 0.042805f, 0.010070f, -0.063534f, -0.094783f, -0.113584f, 0.032666f, -0.033870f, -0.137511f, -0.062254f, -0.029886f, -0.034118f, -0.012087f, 0.072877f, -0.028182f, -0.080716f, -0.017062f, -0.080417f, -0.088108f, -0.066525f, 0.011130f, 0.126470f, -0.141142f, 0.069252f, 0.164445f, 0.214140f, 0.062596f, 0.045432f, -0.111593f},
    {-0.025912f, 0.003515f, -0.092031f, -0.058450f, -0.067076f, 0.005201f, -0.175172f, -0.206306f, 0.040189f, -0.098288f, 0.106345f, -0.077078f, 0.016667f, -0.145422f, -0.019722f, -0.081853f, 0.022839f, -0.007557f, -0.129950f, 0.023984f, -0.108783f, -0.109778f, -0.052798f, 0.044938f, -0.034802f, -0.095557f, 0.096070f, 0.036514f, 0.093796f, -0.020069f, 0.082960f, -0.020609f, -0.077353f, -0.049644f, -0.091863f, -0.108320f, -0.124640f, -0.054775f, -0.083242f, -0.153637f, -0.126776f, -0.161574f, 0.071497f, -0.015074f, 0.242177f, 0.067457f, -0.034212f, -0.058659f, 0.120095f, -0.142408f, -0.113748f, 0.076664f, 0.024568f, -0.019339f, 0.056568f, -0.013262f, -0.097070f, 0.015889f, 0.099847f, -0.105647f, -0.055190f, 0.016550f, 0.043748f, 0.111948f},
    {0.027357f, -0.105612f, -0.025139f, -0.111443f, -0.029595f, -0.072237f, 0.007413f, 0.063154f, -0.098661f, -0.016225f, 0.024539f, -0.068507f, -0.008267f, 0.120240f, 0.063112f, -0.095708f, -0.124215f, -0.036553f, -0.104504f, 0.117922f, -0.100278f, -0.070741f, -0.004598f, 0.063332f, -0.010440f, 0.023272f, -0.084293f, -0.100481f, 0.105436f, 0.049224f, -0.066709f, -0.048537f, -0.100706f, 0.028157f, 0.023828f, -0.082902f, 0.067507f, -0.048588f, 0.019819f, 0.081082f, 0.039298f, 0.052339f, -0.061371f, -0.023573f, 0.094395f, 0.016462f, -0.069384f, 0.026498f, -0.012969f, -0.100138f, -0.080112f, 0.021328f, -0.097707f, 0.042971f, 0.021048f, 0.083959f, 0.108324f, -0.061022f, 0.120026f, 0.019711f, -0.052030f, -0.096761f, 0.018546f, 0.120130f},
    {-0.024416f, -0.099285f, -0.044140f, 0.009985f, 0.018469f, -0.037845f, 0.033412f, 0.059003f, 0.078335f, -0.076915f, 0.000863f, 0.039022f, 0.046851f, 0.103523f, 0.022205f, -0.105803f, 0.087307f, 0.067459f, 0.065532f, -0.106304f, -0.044238f, 0.132828f, -0.009823f, -0.117254f, -0.054959f, -0.039078f, -0.004789f, -0.059766f, -0.041220f, 0.016861f, -0.017823f, 0.092715f, 0.097367f, 0.004281f, -0.009792f, -0.025556f, -0.007664f, 0.090140f, -0.123156f, 0.072997f, 0.090942f, -0.012370f, -0.005407f, -0.128109f, 0.051108f, -0.129892f, -0.120239f, 0.098844f, -0.002511f, 0.075087f, 0.044391f, 0.073803f, -0.013716f, 0.088341f, 0.066493f, 0.038253f, -0.091914f, 0.048438f, 0.103947f, 0.104378f, 0.094924f, 0.088436f, -0.043349f, -0.096281f},
    {0.004927f, 0.000430f, 0.072295f, -0.040985f, -0.089685f, -0.181031f, -0.015171f, 0.178627f, -0.121272f, -0.082518f, 0.055074f, 0.118344f, 0.049032f, -0.051771f, 0.071713f, -0.712628f, 0.106780f, -0.045959f, 0.209029f, 0.086328f, 0.192264f, -0.054212f, 0.252428f, -0.012781f, 0.000953f, 0.404601f, 0.033844f, -0.015491f, 0.071300f, -0.013933f, 0.090451f, 0.231194f, 0.031953f, -0.054436f, 0.091355f, 0.146501f, -0.103568f, 0.040585f, 0.209102f, -0.067864f, 0.084903f, 0.073660f, -0.052855f, 0.083070f, -0.000169f, -0.053077f, -0.075504f, 0.029077f, -0.100992f, -0.096722f, 0.367286f, 0.083188f, 0.119849f, -0.152344f, -0.198354f, -0.287842f, 0.161977f, 0.160994f, 0.541755f, 0.197850f, 0.091929f, 0.026980f, -0.117591f, 0.423624f},
    {-0.067492f, 0.047119f, -0.082806f, -0.137199f, -0.077019f, 0.019758f, -0.037945f, -0.131212f, -0.051374f, 0.120514f, 0.102232f, 0.031051f, 0.014781f, 0.026453f, 0.009717f, -0.111567f, 0.065816f, 0.043162f, -0.068745f, -0.035290f, -0.124563f, 0.114995f, -0.082385f, 0.009177f, 0.006591f, -0.010473f, 0.029420f, 0.052875f, -0.104907f, -0.016616f, 0.053678f, -0.087275f, 0.034718f, -0.114672f, -0.052513f, 0.083736f, 0.063547f, 0.059901f, 0.086580f, -0.058590f, -0.069680f, -0.014592f, -0.049417f, -0.110903f, -0.066541f, -0.047220f, 0.023098f, -0.034384f, 0.008785f, -0.101295f, -0.095793f, 0.095394f, 0.033338f, -0.056711f, -0.113413f, -0.034095f, 0.096880f, -0.100177f, 0.073861f, 0.035146f, 0.071619f, -0.028554f, -0.060350f, 0.067003f},
    {-0.105906f, 0.007256f, 0.057847f, -0.106208f, 0.079860f, 0.084308f, 0.017037f, 0.033234f, 0.062837f, -0.117202f, 0.030435f, 0.121128f, -0.003409f, -0.093289f, -0.012552f, -0.044529f, 0.065907f, -0.055214f, -0.060163f, 0.100762f, 0.103736f, -0.018416f, -0.051915f, 0.123119f, -0.114668f, 0.031184f, 0.025226f, 0.002182f, -0.113116f, -0.114456f, -0.079057f, 0.027426f, -0.063435f, -0.081863f, 0.029640f, -0.013430f, 0.012561f, 0.012498f, -0.058802f, 0.012804f, -0.108210f, -0.025751f, 0.021915f, -0.037470f, -0.115462f, -0.032499f, 0.054420f, 0.056518f, -0.014579f, 0.024543f, 0.092509f, 0.002560f, -0.029559f, -0.052474f, -0.020673f, -0.088114f, 0.023226f, 0.002341f, -0.120657f, -0.036108f, -0.009683f, -0.061873f, -0.013246f, 0.063236f},
    {0.085664f, -0.103386f, 0.066234f, -0.167603f, -0.053752f, 0.043703f, -0.099674f, -0.007742f, -0.010054f, -0.093821f, 0.101102f, 0.056094f, 0.046258f, -0.127261f, -0.092789f, -0.041512f, 0.153076f, 0.043385f, 0.127099f, 0.235574f, 0.076906f, 0.134931f, -0.086128f, 0.077236f, 0.019690f, 0.115113f, 0.048048f, 0.202005f, 0.067367f, 0.194197f, -0.049677f, -0.017043f, -0.115300f, -0.094277f, -0.103817f, 0.154097f, -0.020674f, 0.065214f, -0.081436f, 0.042234f, -0.019657f, 0.066304f, 0.082339f, -0.093306f, -0.096073f, -0.155449f, -0.105545f, -0.115470f, 0.072425f, -0.005580f, -0.093102f, -0.035213f, 0.086872f, -0.095422f, -0.025183f, 0.098588f, 0.011605f, 0.077172f, 0.055099f, 0.089596f, 0.163161f, -0.034794f, -0.078451f, 0.046255f},
    {0.112855f, -0.020423f, -0.012600f, -0.057159f, -0.009229f, 0.047738f, 0.038958f, 0.000503f, 0.113355f, -0.003100f, 0.013892f, 0.061173f, 0.029704f, 0.009160f, 0.039558f, 0.274164f, 0.186647f, -0.073404f, 0.195334f, 0.015620f, 0.056747f, 0.057813f, -0.061403f, 0.092885f, -0.036778f, -0.012920f, 0.110023f, 0.187669f, 0.230075f, 0.110534f, -0.025234f, 0.063899f, -0.072807f, 0.068548f, 0.016230f, 0.240282f, -0.015371f, -0.061429f, 0.050514f, 0.007364f, 0.118570f, -0.077688f, -0.072994f, -0.011528f, 0.030403f, 0.120661f, -0.088138f, 0.107409f, 0.018266f, 0.049632f, -0.028463f, -0.028940f, -0.017545f, 0.052078f, -0.084630f, 0.103640f, 0.229842f, -0.017721f, -0.005600f, 0.263420f, 0.190629f, -0.041831f, -0.064943f, -0.005655f},
    {-0.001714f, -0.045948f, 0.093146f, 0.105982f, -0.040290f, -0.021492f, -0.047606f, 0.064579f, -0.072853f, -0.054326f, 0.076578f, 0.050173f, 0.063082f, -0.059861f, -0.094606f, 0.028001f, -0.069448f, 0.028450f, -0.132384f, 0.101041f, -0.006615f, -0.113547f, 0.039937f, -0.026537f, -0.121210f, 0.089066f, -0.026500f, 0.065042f, -0.003353f, 0.027230f, 0.105309f, -0.045400f, 0.052734f, -0.119231f, 0.014431f, 0.046800f, 0.045140f, -0.124841f, -0.134189f, 0.034712f, -0.052148f, -0.018611f, -0.080856f, -0.107194f, 0.036943f, 0.008507f, 0.124374f, -0.036067f, -0.056615f, -0.002169f, -0.058317f, 0.022287f, -0.094631f, -0.058010f, -0.051821f, 0.034790f, 0.015225f, -0.127096f, -0.007760f, 0.021579f, -0.113632f, -0.104191f, -0.022468f, 0.003942f},
    {0.100431f, 0.022955f, -0.125887f, -0.075802f, -0.010866f, 0.022361f, 0.063033f, 0.012817f, -0.092909f, -0.028054f, 0.111054f, -0.117370f, -0.057833f, -0.018977f, -0.043070f, -0.130928f, -0.056225f, -0.077179f, 0.121471f, -0.055553f, -0.033701f, 0.053507f, -0.085136f, -0.016520f, -0.154676f, -0.013568f, 0.105139f, 0.047195f, -0.117289f, 0.058096f, -0.087729f, 0.073727f, -0.073899f, -0.017895f, 0.094351f, -0.086309f, -0.013157f, -0.080929f, -0.066861f, -0.039672f, -0.075826f, -0.028370f, 0.077382f, -0.104007f, -0.018789f, -0.128529f, -0.115770f, -0.028827f, 0.048931f, 0.076660f, -0.005746f, 0.083033f, 0.080977f, -0.082852f, -0.078376f, 0.041617f, 0.119273f, -0.084401f, -0.134090f, -0.046077f, -0.123045f, -0.017718f, -0.138073f, -0.003189f},
    {0.093345f, 0.072682f, -0.021180f, 0.156182f, -0.021936f, 0.108690f, 0.017559f, -0.332958f, 0.114246f, -0.100088f, 0.010098f, 0.109030f, -0.056220f, 0.129595f, -0.216854f, 1.013064f, -0.205580f, -0.120922f, 0.073000f, 0.023594f, -0.057231f, 0.059995f, -0.217388f, -0.034765f, -0.138269f, -0.176642f, -0.110663f, -0.092641f, -0.102465f, 0.009054f, -0.085484f, -0.122754f, 0.082613f, 0.058550f, 0.114707f, 0.083625f, -0.024269f, -0.040284f, -0.205796f, 0.004978f, -0.057827f, -0.112811f, 0.048455f, 0.059770f, -0.176899f, -0.105064f, -0.062564f, -0.006996f, 0.017899f, 0.125601f, -0.569577f, 0.115088f, -0.013253f, 0.125848f, -0.016641f, 0.245900f, 0.019979f, -0.206587f, -0.430023f, -0.059619f, -0.045984f, 0.054069f, 0.048474f, -0.186855f},
    {-0.074561f, -0.035417f, -0.020302f, 0.096772f, -0.068062f, -0.073778f, -0.082598f, -0.142691f, 0.087552f, -0.088362f, -0.041278f, 0.014627f, 0.102932f, -0.018628f, -0.173385f, -0.506894f, -0.096763f, -0.124020f, 0.007862f, -0.079187f, 0.081670f, 0.009932f, -0.127503f, -0.023529f, 0.009764f, 0.075627f, -0.098931f, 0.036909f, -0.139949f, -0.064607f, 0.074987f, 0.009146f, 0.010783f, 0.024394f, -0.110994f, -0.021296f, -0.012977f, 0.035393f, 0.022541f, 0.077445f, 0.058362f, -0.163356f, -0.127657f, -0.019961f, -0.042315f, 0.066231f, 0.043365f, 0.014884f, 0.104181f, 0.093319f, 0.126979f, -0.052610f, -0.159531f, -0.097229f, -0.002750f, 0.214177f, -0.133483f, -0.062541f, -0.062758f, -0.124726f, 0.039047f, 0.043938f, -0.133682f, -0.145978f},
    {0.008433f, -0.045793f, 0.092077f, 0.061799f, -0.024748f, 0.006157f, -0.029783f, -0.559932f, -0.124749f, -0.009222f, 0.027244f, 0.098347f, 0.238021f, -0.001600f, -0.206584f, -0.628312f, 0.127930f, 0.063013f, 0.012468f, 0.096024f, 0.110043f, -0.110555f, 0.267824f, 0.183429f, 0.076274f, 0.290214f, 0.106831f, 0.110269f, 0.027733f, 0.094835f, -0.094520f, 0.225889f, 0.044330f, -0.163701f, -0.031137f, 0.195846f, 0.042094f, 0.246354f, 0.244921f, -0.165897f, -0.124601f, 0.063544f, -0.061543f, -0.034320f, -0.069555f, 0.115511f, 0.110855f, -0.043079f, -0.004874f, -0.092459f, 0.270938f, 0.048229f, -0.064272f, -0.054271f, -0.000721f, 0.486750f, 0.024156f, 0.189588f, 0.141345f, 0.135995f, 0.107023f, -0.112230f, -0.060110f, 0.475029f},
    {0.070049f, -0.061198f, -0.022201f, -0.099990f, 0.090283f, -0.107384f, 0.058438f, 0.103150f, 0.018127f, -0.068486f, -0.044984f, 0.023678f, 0.096445f, 0.077468f, -0.002331f, -0.124525f, 0.204631f, -0.078790f, -0.002613f, 0.184346f, 0.214951f, 0.023270f, -0.068730f, 0.111667f, -0.048996f, -0.020065f, 0.004828f, 0.094133f, 0.055464f, 0.125653f, -0.030495f, 0.154277f, 0.015255f, -0.084931f, 0.104240f, 0.019972f, -0.062781f, -0.028070f, 0.079258f, 0.004013f, -0.066037f, -0.101160f, -0.046591f, -0.047580f, -0.070595f, 0.038120f, -0.087192f, -0.088151f, 0.056607f, -0.057190f, -0.037360f, 0.018579f, 0.051685f, 0.078511f, -0.073991f, 0.228335f, 0.181848f, -0.093056f, 0.149078f, 0.133882f, 0.054123f, -0.133143f, 0.047682f, 0.227987f},
    {0.044323f, 0.012568f, 0.054994f, -0.012123f, -0.021476f, 0.032533f, -0.254192f, -0.409519f, 0.070542f, -0.018052f, 0.056504f, 0.196386f, -0.107261f, -0.161918f, -0.120575f, 0.099611f, 0.037812f, 0.022582f, 0.138501f, 0.166159f, 0.198582f, 0.029890f, 0.039718f, 0.109640f, -0.062498f, -0.036266f, 0.092290f, 0.119258f, 0.021083f, 0.057224f, -0.019030f, 0.072883f, -0.176779f, -0.027510f, -0.100411f, 0.211938f, -0.068410f, -0.009413f, 0.010833f, -0.154024f, 0.023953f, 0.019591f, -0.056272f, -0.143139f, -0.058310f, -0.054416f, -0.024343f, -0.024097f, -0.084090f, 0.074632f, -0.043528f, 0.121797f, 0.026056f, -0.241573f, 0.007414f, 0.052597f, 0.064082f, -0.155941f, 0.023579f, 0.184277f, -0.001914f, -0.152620f, 0.014155f, -0.024407f},
    {0.038040f, 0.059509f, 0.105302f, 0.012298f, 0.002150f, -0.133117f, -0.023197f, -0.704607f, 0.034642f, -0.073902f, -0.111032f, 0.022783f, 0.009645f, -0.060665f, -0.108860f, -0.892269f, 0.209897f, -0.078381f, 0.024656f, 0.090213f, 0.111733f, -0.054561f, 0.058175f, 0.098449f, 0.119655f, -0.007039f, 0.048780f, -0.082945f, -0.051273f, -0.017161f, -0.090227f, 0.157078f, -0.039851f, 0.016019f, -0.115743f, -0.072457f, -0.133396f, 0.058159f, 0.240838f, -0.225068f, -0.055114f, -0.058016f, 0.103436f, 0.057850f, 0.152384f, 0.111106f, 0.032867f, -0.120581f, -0.107134f, -0.057424f, 0.387796f, -0.063154f, -0.151021f, -0.094496f, -0.104241f, -0.067027f, -0.116947f, 0.044474f, 0.242829f, 0.123257f, 0.090883f, 0.089908f, -0.170193f, 0.295625f},
    {-0.081049f, -0.141271f, 0.034692f, -0.092997f, -0.095241f, -0.048568f, -0.148858f, 0.201488f, 0.072969f, 0.090725f, 0.083223f, 0.128165f, -0.001973f, 0.073682f, -0.002890f, 0.117372f, 0.183172f, 0.119287f, 0.140580f, -0.022160f, 0.048584f, -0.000090f, -0.100389f, 0.125800f, -0.050589f, -0.109833f, 0.174455f, 0.037956f, -0.023313f, 0.200739f, 0.103320f, -0.024964f, 0.045247f, -0.083315f, -0.117841f, 0.127700f, -0.102237f, -0.101253f, -0.021298f, 0.018017f, 0.094706f, 0.001162f, 0.087984f, 0.073219f, 0.066246f, 0.089512f, 0.006372f, -0.099397f, -0.094867f, 0.030732f, 0.060530f, 0.106282f, -0.087701f, -0.022407f, 0.079557f, -0.018556f, 0.113551f, 0.078739f, 0.143460f, 0.190000f, 0.039944f, -0.050265f, 0.059493f, -0.064984f},
    {-0.017984f, 0.059765f, -0.119324f, 0.076215f, 0.124739f, -0.065319f, -0.099928f, 0.012709f, 0.107645f, -0.056461f, -0.003984f, -0.010409f, 0.088063f, 0.087900f, -0.109724f, -0.118915f, 0.052496f, -0.077238f, -0.041876f, -0.140809f, -0.013141f, 0.067477f, 0.018393f, 0.035895f, 0.010026f, 0.059632f, 0.050268f, 0.014566f, -0.112004f, -0.018709f, 0.001951f, 0.093196f, 0.051093f, -0.090261f, -0.046730f, -0.013319f, -0.048737f, 0.044586f, -0.117904f, 0.074989f, 0.094079f, -0.149245f, 0.085260f, 0.087670f, 0.045882f, -0.124058f, 0.049066f, 0.027238f, 0.068570f, 0.035833f, -0.008566f, 0.068535f, -0.081031f, -0.060468f, 0.089892f, 0.064751f, 0.102928f, 0.022682f, -0.219329f, -0.134076f, -0.028790f, -0.093983f, -0.114923f, -0.112844f},
    {-0.107082f, -0.042128f, -0.075470f, 0.008338f, 0.060208f, 0.026205f, 0.124023f, -0.068111f, 0.012769f, -0.023617f, -0.092197f, -0.084724f, 0.027910f, 0.061089f, -0.094740f, 0.089241f, -0.003467f, -0.069142f, 0.007547f, -0.024339f, 0.043688f, -0.060317f, 0.103022f, -0.122113f, 0.003544f, -0.098168f, 0.088984f, 0.012387f, 0.049557f, -0.112964f, -0.117387f, -0.088761f, -0.033045f, 0.064404f, 0.059616f, -0.010930f, -0.070954f, -0.093814f, -0.108964f, -0.101564f, -0.064525f, -0.119604f, -0.081326f, 0.065830f, -0.007501f, -0.064637f, 0.014904f, -0.020342f, -0.107672f, -0.082936f, 0.038595f, -0.052603f, 0.035558f, 0.060916f, -0.109915f, 0.020268f, -0.042345f, -0.064459f, 0.067697f, -0.057401f, -0.029717f, -0.076285f, 0.118501f, -0.037293f},
    {-0.057885f, 0.066586f, 0.028638f, -0.000633f, 0.037501f, 0.014341f, -0.070627f, -0.321497f, 0.095199f, 0.124042f, -0.026405f, 0.169317f, -0.122387f, 0.026575f, -0.058600f, -0.245103f, 0.073286f, -0.005103f, 0.206797f, 0.145730f, -0.045097f, -0.089937f, -0.049566f, 0.155373f, -0.018944f, 0.027553f, -0.020053f, 0.016588f, -0.049802f, 0.057236f, 0.008585f, -0.080031f, -0.055280f, -0.174891f, 0.110879f, -0.038991f, 0.022429f, -0.150015f, -0.154454f, -0.129089f, -0.008276f, 0.095280f, -0.045460f, -0.025949f, 0.156736f, 0.014034f, 0.036399f, -0.048706f, 0.012422f, -0.101321f, -0.032542f, 0.052431f, -0.092520f, 0.074328f, -0.082469f, -0.164543f, 0.041286f, 0.009643f, 0.289258f, 0.020790f, 0.108976f, -0.160661f, -0.075076f, -0.066555f},
    {0.106361f, -0.128265f, 0.035230f, 0.155269f, -0.104900f, -0.125258f, -0.059710f, 0.028110f, 0.087522f, -0.101074f, 0.062650f, 0.268920f, 0.016198f, -0.067533f, -0.023278f, 0.215574f, 0.335667f, -0.080528f, 0.185788f, 0.421605f, 0.408501f, -0.083115f, -0.172964f, 0.148582f, -0.053125f, 0.018337f, 0.428744f, 0.181166f, 0.332215f, 0.484533f, 0.045631f, 0.171408f, 0.004152f, 0.012681f, 0.042118f, 0.316640f, -0.146325f, -0.014072f, 0.202308f, 0.026235f, -0.061231f, -0.082144f, 0.058136f, -0.046445f, -0.069791f, -0.036325f, -0.119351f, -0.058785f, 0.171539f, -0.002874f, -0.036332f, 0.015631f, -0.137897f, -0.117392f, 0.018656f, 0.134132f, 0.294870f, -0.083346f, 0.065354f, 0.377005f, 0.428878f, -0.096788f, 0.027496f, 0.328669f},
    {0.000947f, 0.035652f, 0.097873f, 0.127110f, -0.122109f, -0.179493f, -0.095584f, -1.224762f, 0.117452f, 0.076327f, -0.021639f, 0.016373f, 0.012781f, -0.035962f, -0.247588f, -0.732799f, 0.089662f, 0.010463f, -0.001845f, 0.064363f, 0.042383f, -0.120094f, -0.222698f, 0.058733f, 0.046783f, 0.221943f, -0.035884f, -0.022155f, -0.111127f, -0.101685f, -0.048845f, 0.146983f, -0.088388f, -0.113673f, 0.060196f, -0.031528f, -0.116532f, 0.109259f, 0.380348f, -0.208229f, -0.001935f, 0.093468f, 0.067457f, 0.046345f, 0.240629f, -0.007455f, 0.061704f, -0.040646f, -0.061235f, -0.043159f, 0.330314f, -0.064409f, 0.076206f, 0.054205f, -0.064500f, -0.194753f, -0.086610f, 0.187347f, 0.213479f, -0.166001f, 0.033174f, -0.036610f, -0.201995f, 0.352699f},
    {0.051039f, -0.030255f, -0.079167f, -0.273871f, -0.058523f, -0.047167f, -0.154841f, -0.117909f, -0.112111f, 0.107432f, -0.045334f, 0.071044f, -0.109203f, -0.033875f, 0.111929f, 0.139591f, 0.180947f, -0.024163f, -0.028552f, 0.048015f, 0.013018f, -0.001363f, 0.101151f, 0.011984f, -0.044883f, 0.092131f, 0.168431f, 0.172236f, 0.139592f, -0.048562f, -0.117956f, -0.134520f, 0.002439f, 0.058244f, 0.085636f, 0.127361f, 0.111899f, 0.129018f, 0.136173f, -0.150224f, 0.081040f, -0.089798f, -0.103630f, 0.001565f, 0.058938f, -0.007658f, 0.111839f, -0.026341f, -0.288550f, -0.062229f, -0.123149f, -0.122611f, 0.043278f, -0.159777f, 0.037114f, -0.064048f, 0.035631f, -0.109826f, -0.362478f, 0.061994f, 0.043179f, 0.092050f, -0.154171f, 0.095330f},
    {0.060479f, -0.027934f, -0.039354f, -0.047684f, 0.079056f, 0.041459f, -0.065510f, 0.057645f, -0.075835f, -0.118772f, -0.017422f, -0.109549f, 0.037426f, -0.071129f, 0.100257f, 0.064102f, -0.081143f, -0.038402f, 0.060580f, -0.123555f, -0.007042f, 0.010050f, 0.008804f, -0.014208f, -0.100247f, 0.081065f, 0.087212f, -0.010131f, 0.013733f, 0.019834f, 0.118958f, -0.119174f, -0.085202f, -0.004264f, -0.092330f, -0.029121f, 0.053906f, -0.018331f, -0.118421f, -0.014755f, -0.055819f, 0.009385f, -0.007871f, -0.012439f, -0.022899f, -0.019033f, -0.115560f, 0.044110f, 0.047928f, -0.091761f, 0.041926f, -0.076096f, 0.075382f, -0.054031f, -0.086993f, -0.003840f, 0.078017f, 0.080408f, -0.024456f, 0.052937f, -0.058419f, 0.023024f, -0.071884f, -0.112779f},
    {0.006123f, 0.049548f, -0.057541f, -0.088063f, -0.073772f, 0.080446f, -0.081417f, -0.044789f, -0.071429f, 0.121146f, -0.057543f, 0.119964f, -0.103167f, -0.083379f, -0.030877f, 0.024258f, 0.118221f, 0.004345f, -0.096407f, -0.047119f, -0.098382f, -0.012693f, -0.105010f, 0.019686f, 0.010171f, 0.028616f, -0.085055f, 0.035877f, -0.061659f, -0.075914f, 0.034753f, 0.093314f, -0.019920f, 0.112234f, -0.012995f, -0.061646f, 0.062682f, 0.063829f, 0.052478f, -0.102830f, 0.026067f, 0.025303f, -0.020358f, -0.078683f, 0.120226f, -0.123372f, 0.060469f, 0.102629f, -0.038444f, 0.040198f, -0.058521f, 0.090822f, -0.044442f, -0.115002f, -0.044191f, 0.063653f, 0.094376f, -0.036767f, -0.027205f, -0.064872f, -0.089646f, 0.115213f, -0.041913f, 0.116960f},
    {-0.080427f, -0.049671f, -0.031092f, 0.065681f, -0.045906f, -0.051853f, 0.052508f, 0.097150f, 0.118118f, 0.123102f, 0.121836f, -0.078632f, -0.072261f, -0.058461f, 0.050766f, -0.032590f, -0.092932f, 0.059119f, 0.071950f, 0.069518f, -0.020436f, -0.030800f, 0.011372f, 0.075151f, 0.051675f, -0.041551f, -0.055272f, 0.097122f, 0.053564f, -0.032600f, 0.120885f, -0.103267f, 0.021070f, 0.086513f, 0.065270f, -0.054767f, 0.047148f, -0.079198f, 0.118041f, -0.032102f, -0.044815f, -0.048823f, 0.072885f, -0.053107f, 0.024059f, 0.032064f, 0.049045f, 0.099067f, -0.075038f, 0.014955f, -0.090290f, 0.063265f, -0.118958f, -0.044647f, -0.111641f, 0.000846f, 0.004425f, -0.066340f, 0.123347f, 0.063832f, -0.074596f, -0.112978f, 0.037478f, 0.101118f},
    {0.006982f, -0.112944f, -0.066217f, -0.043444f, -0.063560f, -0.071699f, -0.066339f, 0.044002f, 0.097769f, -0.045869f, -0.082646f, -0.003256f, 0.037573f, -0.067370f, 0.033463f, 0.056013f, -0.039066f, -0.100666f, 0.073188f, -0.041892f, 0.022849f, -0.047525f, -0.053804f, -0.107336f, -0.049369f, 0.000530f, -0.030638f, -0.102061f, -0.077538f, -0.042217f, 0.054744f, 0.055536f, 0.043822f, -0.090211f, 0.040743f, -0.095764f, -0.036709f, 0.088197f, -0.065909f, 0.034169f, 0.030408f, 0.042491f, 0.032748f, -0.088187f, 0.069809f, -0.052031f, 0.091043f, -0.082789f, 0.104253f, 0.075016f, 0.033630f, -0.119607f, 0.073826f, 0.056137f, -0.099388f, 0.002077f, 0.041533f, 0.071602f, -0.044553f, 0.047044f, -0.047220f, -0.107424f, 0.065654f, -0.014117f},
    {0.119650f, 0.067322f, -0.033782f, 0.001545f, 0.095949f, 0.165053f, 0.051555f, 0.424810f, -0.048282f, -0.067240f, -0.122416f, -0.048465f, -0.041275f, 0.011103f, 0.072658f, 0.613463f, 0.061824f, -0.081670f, 0.061495f, 0.065958f, -0.067790f, 0.006276f, -0.248607f, 0.091478f, 0.034276f, 0.641842f, -0.158927f, 0.083054f, -0.114528f, 0.040141f, 0.008867f, -0.243287f, 0.098059f, 0.148539f, -0.037872f, 0.035852f, 0.106454f, -0.514829f, -0.243725f, 0.188694f, -0.252272f, -0.122383f, -0.055617f, 0.096323f, -0.108184f, -0.016324f, -0.068520f, 0.012237f, -0.080014f, -0.030668f, -0.353065f, 0.060437f, -0.007700f, 0.052007f, -0.036940f, 0.193058f, -0.151464f, -0.131339f, -0.324402f, -0.053730f, 0.055556f, 0.102073f, 0.094360f, -0.161961f},
    {0.069237f, 0.020175f, -0.088932f, -0.098403f, 0.011254f, -0.110294f, 0.112569f, -0.061572f, 0.055630f, -0.058152f, -0.119840f, -0.012691f, -0.093434f, 0.081247f, 0.090781f, 0.018770f, -0.084634f, 0.113622f, -0.062996f, -0.108605f, -0.104446f, -0.119238f, 0.095072f, 0.025736f, -0.102821f, 0.074998f, 0.052217f, 0.056627f, 0.122874f, 0.036065f, 0.028553f, 0.034274f, -0.088778f, -0.055750f, -0.051202f, -0.058303f, -0.121778f, 0.072305f, -0.119169f, -0.068486f, 0.033769f, -0.108683f, 0.056539f, -0.094216f, 0.094646f, 0.056673f, -0.121518f, 0.030538f, -0.080398f, 0.043117f, 0.080016f, 0.080455f, 0.012651f, -0.057345f, -0.012717f, -0.030638f, -0.063028f, 0.105814f, -0.076594f, -0.097012f, -0.016568f, 0.087766f, -0.082881f, -0.083252f},
    {-0.111918f, -0.012842f, -0.094889f, -0.089193f, -0.074544f, -0.101524f, -0.055447f, -0.015456f, -0.010728f, -0.104572f, -0.074581f, -0.084223f, 0.108515f, -0.043645f, -0.077726f, 0.060346f, 0.005005f, -0.059132f, 0.043743f, -0.100976f, 0.019668f, 0.093919f, -0.071196f, -0.032043f, 0.050115f, -0.096045f, -0.096247f, 0.006392f, -0.007452f, -0.000099f, 0.056785f, -0.120966f, 0.032355f, -0.067814f, -0.006638f, 0.084818f, 0.062124f, 0.070284f, 0.086526f, 0.053737f, 0.019819f, -0.038126f, 0.103434f, -0.132229f, -0.107965f, 0.101703f, 0.050669f, -0.119084f, 0.069728f, 0.088228f, -0.020093f, 0.076978f, -0.080198f, -0.046606f, 0.120613f, -0.068508f, 0.096857f, 0.049310f, -0.113242f, -0.002487f, 0.071335f, -0.062194f, -0.058119f, -0.120017f},
    {-0.020468f, 0.083846f, -0.101893f, 0.026288f, 0.084306f, -0.219240f, -0.006977f, -0.708941f, 0.032441f, 0.098987f, 0.097945f, -0.052652f, 0.244219f, 0.015326f, -0.121656f, -0.924866f, 0.080903f, -0.079072f, 0.010834f, 0.133033f, 0.063193f, 0.045866f, -0.115702f, -0.003512f, 0.059505f, -0.389915f, 0.081343f, 0.022964f, -0.033249f, 0.079449f, -0.073254f, 0.241766f, -0.150982f, -0.195765f, 0.105744f, 0.158340f, -0.082412f, 0.230054f, 0.164844f, -0.119125f, 0.024907f, 0.136442f, 0.107788f, -0.067667f, 0.083114f, 0.031413f, 0.076659f, -0.039112f, 0.025030f, -0.119328f, 0.215628f, -0.103051f, 0.051183f, 0.036773f, -0.075959f, 0.198155f, -0.005689f, 0.171281f, 0.337273f, 0.135828f, 0.163866f, 0.085429f, -0.168954f, 0.371202f},
    {0.119924f, -0.116585f, -0.091528f, -0.025631f, 0.038400f, -0.034592f, 0.039527f, -0.121550f, -0.102721f, 0.006899f, -0.045575f, 0.108975f, 0.099323f, 0.010900f, 0.016827f, -0.013066f, -0.005059f, -0.012162f, -0.030705f, 0.175536f, 0.165828f, -0.012653f, -0.133102f, 0.169598f, -0.010042f, -0.020769f, 0.054172f, -0.011645f, -0.012168f, -0.000386f, -0.072943f, 0.098365f, -0.008016f, -0.093395f, 0.009988f, 0.145749f, 0.026616f, 0.035193f, 0.044406f, 0.106181f, 0.054174f, 0.002174f, -0.034329f, 0.113887f, -0.040889f, 0.042095f, 0.024008f, -0.055422f, 0.116676f, 0.101838f, 0.010837f, -0.063463f, -0.129082f, 0.030329f, -0.034863f, 0.163860f, 0.108533f, 0.011713f, 0.020654f, -0.010244f, 0.107614f, 0.057244f, 0.096138f, -0.173304f},
    {0.041763f, 0.047381f, 0.138312f, -0.262893f, -0.088149f, -0.014246f, -0.099166f, -0.599553f, -0.108320f, 0.129928f, -0.083598f, 0.249000f, -0.584758f, 0.164917f, 0.030612f, 1.095545f, -0.139082f, -0.102664f, 0.131484f, 0.211327f, 0.160330f, 0.044171f, -0.937014f, 0.194159f, -0.023949f, -0.287934f, 0.138790f, 0.128353f, 0.155582f, 0.209565f, -0.024526f, 0.035090f, -0.005007f, 0.031588f, -0.016219f, 0.159520f, 0.042473f, 0.476505f, 0.225561f, -0.233308f, -0.143852f, 0.038548f, -0.100079f, 0.050486f, -0.152277f, 0.137229f, -0.061516f, 0.103434f, -0.228775f, -0.045063f, -0.706134f, -0.024207f, 0.017837f, -0.240129f, 0.403880f, 0.288461f, 0.200690f, -0.461977f, -0.845011f, 0.123529f, 0.081716f, 0.070654f, 0.000800f, 0.180274f},
    {-0.044170f, -0.120036f, -0.043617f, 0.108728f, 0.085009f, -0.067421f, 0.043878f, 0.086098f, -0.079769f, -0.007054f, 0.069881f, 0.192698f, 0.060386f, 0.085128f, -0.001425f, -0.023082f, 0.029615f, -0.068559f, 0.212399f, 0.098414f, 0.208996f, 0.003183f, -0.099158f, 0.200328f, 0.064591f, 0.062254f, 0.164812f, 0.036015f, 0.053489f, 0.216573f, 0.013653f, 0.095605f, 0.077756f, -0.024282f, 0.070964f, 0.160052f, 0.077641f, -0.021976f, 0.026703f, -0.004715f, 0.047315f, -0.095642f, 0.077653f, -0.056332f, -0.030252f, -0.079406f, 0.076288f, 0.056132f, 0.090235f, 0.075563f, 0.051901f, -0.037935f, -0.077578f, -0.114035f, 0.034214f, 0.058105f, 0.167727f, 0.011521f, -0.048333f, 0.000998f, 0.034569f, 0.002422f, -0.037532f, -0.001436f},
    {0.123689f, -0.087917f, -0.036742f, -0.053837f, -0.070493f, -0.008028f, -0.017370f, 0.171408f, 0.052012f, -0.021303f, -0.101147f, -0.046305f, -0.086884f, -0.088108f, 0.088472f, 0.152194f, 0.104577f, -0.116504f, -0.042019f, -0.034252f, 0.054830f, -0.083845f, 0.146332f, 0.151131f, -0.166367f, 0.228114f, -0.063485f, 0.036136f, -0.060617f, 0.115177f, -0.017187f, -0.065899f, -0.016450f, -0.085127f, 0.014891f, 0.139013f, -0.149464f, -0.256161f, -0.131632f, -0.206501f, -0.108329f, -0.056921f, 0.033043f, -0.018757f, 0.048641f, -0.030891f, 0.008261f, -0.093250f, 0.091322f, 0.116529f, -0.214261f, -0.089302f, 0.052104f, -0.047134f, -0.079136f, -0.689216f, -0.005756f, -0.280000f, 0.474528f, 0.096869f, 0.151330f, 0.024252f, 0.052248f, 0.129930f},
    {0.067501f, 0.074686f, 0.066705f, 0.024099f, -0.068738f, 0.090200f, 0.023258f, 0.692751f, -0.074703f, 0.126781f, -0.048403f, -0.096594f, -0.218759f, -0.023794f, 0.101952f, 0.905560f, 0.051247f, -0.075998f, 0.102245f, 0.031313f, -0.086423f, 0.100308f, -0.008074f, -0.008467f, -0.116559f, 0.114386f, 0.076657f, -0.011408f, 0.025271f, 0.111665f, 0.035463f, -0.257896f, 0.009114f, 0.112152f, -0.105884f, -0.035488f, 0.144555f, -0.146431f, -0.269771f, 0.171213f, -0.056112f, -0.054953f, -0.126252f, -0.002499f, -0.046167f, -0.101287f, -0.030646f, 0.061022f, -0.069674f, 0.100624f, -0.251828f, 0.007856f, 0.104511f, -0.068987f, 0.075639f, -0.070793f, -0.013705f, -0.277449f, -0.376811f, 0.014564f, 0.102430f, -0.131377f, 0.173979f, -0.401254f},
    {0.094569f, 0.030195f, -0.068328f, -0.077931f, -0.024142f, -0.063783f, -0.142157f, -0.461317f, 0.013223f, -0.083347f, -0.110653f, -0.038942f, -0.033145f, 0.027206f, 0.194256f, 0.245127f, 0.056759f, -0.072264f, 0.049423f, 0.123437f, 0.042660f, -0.043463f, 0.149165f, 0.136322f, -0.076379f, 0.037447f, -0.040325f, -0.003586f, 0.124875f, 0.181049f, 0.057986f, 0.017361f, 0.012977f, 0.037974f, 0.071410f, 0.194479f, 0.070022f, -0.085831f, 0.120496f, -0.194435f, 0.075642f, -0.036244f, -0.031473f, 0.042150f, 0.112046f, -0.063552f, -0.092508f, -0.064039f, -0.125114f, -0.095704f, -0.042250f, -0.053253f, -0.071633f, -0.006440f, -0.061270f, -0.218760f, -0.002396f, 0.049020f, -0.008771f, 0.113406f, 0.041707f, 0.015883f, 0.021098f, 0.095962f},
    {0.054473f, -0.007789f, -0.017809f, 0.109684f, 0.119429f, 0.007237f, 0.003956f, -0.213562f, -0.076209f, -0.136486f, -0.022209f, 0.132949f, -0.006116f, 0.071853f, -0.053400f, -0.180267f, 0.077183f, 0.119794f, 0.135676f, 0.159873f, 0.113780f, -0.019868f, -0.088926f, 0.164489f, -0.021912f, 0.062560f, 0.045892f, 0.070194f, 0.187787f, -0.027409f, -0.031871f, 0.029165f, -0.104782f, -0.017827f, -0.110008f, 0.039536f, -0.073729f, -0.054033f, -0.084773f, -0.083103f, 0.070431f, 0.063020f, -0.135623f, 0.036304f, 0.147208f, -0.094300f, -0.054227f, 0.026434f, -0.078112f, -0.131082f, -0.029300f, 0.003134f, -0.021375f, 0.069701f, -0.136871f, 0.034036f, 0.062807f, 0.004903f, 0.288494f, 0.064934f, 0.178714f, 0.078863f, 0.074437f, 0.163579f},
    {0.079387f, 0.057493f, -0.031338f, -0.097265f, -0.000658f, 0.081997f, -0.059872f, -0.017949f, 0.113163f, -0.002634f, 0.081338f, 0.193162f, -0.141544f, -0.063333f, -0.063801f, -0.128557f, 0.203362f, -0.117125f, 0.083508f, 0.081845f, 0.230790f, -0.061864f, 0.032274f, 0.252330f, -0.042345f, 0.100548f, 0.145775f, 0.077529f, 0.060763f, 0.212840f, 0.107996f, -0.096333f, -0.045873f, -0.040454f, -0.033264f, 0.011684f, -0.089846f, -0.046097f, -0.109372f, -0.065494f, -0.136573f, 0.003320f, 0.066490f, -0.143247f, 0.027495f, -0.083029f, 0.064346f, -0.056346f, 0.055998f, -0.102622f, 0.031104f, -0.073936f, 0.024628f, 0.079488f, -0.120571f, 0.109792f, 0.232495f, -0.009131f, 0.079476f, 0.260978f, 0.104992f, -0.099159f, -0.103398f, -0.037397f},
    {-0.117942f, 0.100842f, 0.068567f, -0.276198f, 0.068253f, -0.052490f, 0.118991f, -0.619335f, -0.001146f, 0.123373f, 0.063219f, 0.091732f, -0.311095f, -0.057161f, 0.107783f, 0.266340f, -0.349616f, -0.107132f, 0.050774f, 0.077057f, -0.032636f, -0.123662f, 0.221759f, -0.100376f, -0.125960f, -0.396842f, -0.097121f, 0.104459f, -0.069018f, 0.065682f, 0.084618f, -0.266872f, 0.068792f, -0.002898f, 0.047545f, -0.017930f, 0.184858f, 0.539740f, 0.273909f, 0.180348f, 0.326884f, -0.072852f, 0.104169f, -0.173727f, -0.050983f, 0.020418f, 0.055319f, 0.023393f, -0.925602f, -0.039029f, 0.221625f, -0.033890f, -0.026245f, 0.011271f, 0.137497f, -0.034767f, -0.093048f, 0.039429f, -1.315882f, -0.008430f, -0.120722f, 0.119037f, -0.101077f, -0.102362f},
    {-0.106121f, 0.015977f, 0.047164f, 0.031665f, -0.066961f, -0.081335f, -0.211095f, -0.304305f, -0.021982f, 0.123395f, 0.082418f, -0.019150f, -0.251920f, -0.007652f, -0.123415f, 0.051889f, 0.146816f, 0.023999f, 0.004024f, 0.123065f, -0.004907f, 0.067631f, -0.184450f, 0.003221f, -0.041024f, -0.235909f, -0.009621f, 0.195442f, 0.045329f, 0.124113f, 0.089563f, -0.057131f, -0.131152f, 0.027366f, -0.104385f, 0.128071f, -0.118325f, 0.098950f, -0.063005f, -0.125879f, -0.085062f, -0.151385f, 0.049535f, -0.014382f, 0.163682f, -0.108756f, -0.031022f, 0.100206f, -0.172317f, -0.100044f, -0.129974f, -0.035748f, -0.139561f, -0.112951f, -0.107589f, 0.641186f, 0.004327f, -0.005593f, -0.420001f, 0.221619f, 0.102367f, 0.039366f, -0.190410f, -0.059059f},
    {0.065594f, -0.012957f, 0.009462f, -0.042221f, 0.092141f, -0.132331f, 0.078971f, 0.084665f, -0.075481f, 0.104857f, 0.070154f, -0.051140f, -0.004663f, 0.029966f, -0.224039f, 0.265334f, -0.350274f, -0.110430f, -0.056852f, -0.045170f, -0.072493f, -0.123356f, 0.009609f, -0.059599f, -0.001915f, -0.117774f, -0.109991f, -0.032429f, 0.086087f, -0.052307f, -0.001388f, -0.085273f, -0.034379f, -0.041936f, -0.071409f, 0.018570f, 0.048198f, 0.047148f, 0.072600f, 0.008034f, -0.025709f, -0.158875f, -0.094613f, 0.026125f, -0.202358f, 0.026834f, -0.054833f, -0.024026f, -0.129692f, 0.044983f, 0.049376f, 0.124155f, 0.049219f, -0.124133f, 0.097112f, 0.312251f, -0.055534f, 0.029309f, -0.376056f, 0.070416f, 0.106205f, 0.080683f, -0.141512f, -0.051687f},
    {0.121554f, -0.010480f, -0.018202f, 0.055032f, -0.061489f, -0.000109f, -0.058186f, -0.629904f, 0.114817f, -0.087900f, -0.119184f, -0.096453f, -0.065822f, 0.100017f, -0.116287f, 0.118703f, 0.193034f, 0.075251f, -0.045362f, 0.009006f, -0.004503f, -0.114728f, -0.041706f, -0.117192f, -0.120326f, 0.079062f, 0.022823f, 0.062799f, 0.022584f, -0.115809f, 0.012643f, -0.053240f, 0.071839f, -0.149133f, 0.111143f, -0.052344f, 0.031571f, -0.014358f, -0.014784f, -0.157386f, 0.051082f, 0.094049f, -0.075100f, 0.088966f, -0.125218f, -0.023998f, -0.022422f, -0.000502f, 0.004816f, 0.095777f, -0.006310f, -0.001520f, -0.064267f, -0.152682f, -0.094674f, -0.305428f, 0.082089f, -0.131692f, 0.026058f, 0.109913f, -0.024766f, 0.092544f, -0.075467f, -0.023535f},
    {-0.091167f, -0.067501f, 0.040582f, 0.113561f, -0.019570f, -0.058915f, -0.120156f, -0.037556f, -0.075880f, 0.075811f, 0.065699f, 0.055292f, 0.120339f, 0.086565f, 0.017842f, -0.040946f, 0.113610f, 0.069606f, 0.076729f, 0.215274f, 0.100121f, 0.048476f, 0.019338f, 0.049316f, 0.012649f, 0.177382f, 0.201077f, 0.074696f, 0.153894f, 0.123228f, 0.028566f, 0.142276f, -0.080020f, 0.056669f, 0.077291f, 0.152636f, -0.062133f, 0.026156f, 0.118395f, -0.013477f, -0.006085f, 0.118463f, -0.120745f, -0.085554f, 0.026394f, -0.056488f, -0.069085f, 0.046208f, -0.036745f, 0.085044f, 0.070575f, -0.096475f, -0.129817f, -0.081107f, 0.046071f, 0.324504f, 0.005457f, 0.014001f, -0.009712f, 0.152399f, 0.023825f, -0.154928f, 0.009435f, -0.026481f},
    {0.096558f, 0.073373f, 0.015543f, -0.045004f, -0.051988f, -0.088663f, -0.076626f, 0.064769f, 0.016858f, -0.047565f, -0.013720f, -0.034618f, 0.004312f, 0.088178f, 0.011782f, -0.158528f, -0.036090f, 0.036299f, 0.048836f, -0.042024f, -0.000182f, -0.094233f, -0.215257f, 0.051658f, -0.121669f, -0.014221f, 0.059328f, 0.083364f, -0.010548f, 0.087082f, 0.047897f, 0.040675f, -0.118370f, -0.064246f, -0.070378f, -0.120574f, -0.118414f, -0.029916f, 0.078393f, 0.002823f, -0.109700f, -0.005610f, 0.022154f, -0.070937f, -0.108574f, -0.008467f, 0.046560f, 0.078210f, -0.037669f, -0.127601f, 0.055489f, -0.040873f, -0.000994f, 0.030724f, -0.025929f, 0.085479f, 0.013827f, 0.085542f, 0.104705f, -0.086307f, -0.035825f, 0.037713f, -0.125517f, -0.123019f},
    {0.035180f, -0.107156f, -0.066237f, 0.098013f, -0.022666f, -0.120105f, 0.020998f, 0.142320f, 0.003196f, 0.035173f, 0.053748f, 0.124296f, 0.021356f, 0.055524f, -0.043761f, 0.177980f, 0.131426f, -0.006624f, 0.355449f, 0.206346f, 0.227928f, 0.019755f, 0.009532f, 0.190626f, 0.070277f, -0.101709f, 0.318567f, 0.150706f, 0.312948f, 0.210357f, -0.070424f, 0.037499f, -0.086774f, -0.095987f, 0.058663f, 0.209395f, -0.031167f, -0.113809f, -0.078449f, -0.013695f, 0.017516f, -0.016702f, 0.000042f, 0.100975f, 0.060919f, 0.001259f, 0.014823f, 0.015508f, 0.094310f, -0.026917f, 0.024902f, 0.086760f, -0.090333f, -0.056245f, -0.081850f, -0.076691f, 0.169407f, -0.056514f, 0.048362f, 0.276687f, 0.288064f, 0.080283f, -0.063624f, 0.083865f},
    {-0.072255f, -0.046866f, 0.004594f, 0.067256f, 0.037596f, -0.137549f, 0.074898f, 0.056336f, -0.102927f, -0.089815f, -0.084242f, 0.028950f, -0.110459f, -0.077705f, 0.072227f, 0.090185f, 0.020280f, -0.054947f, 0.004558f, -0.114499f, -0.003892f, 0.023382f, 0.017044f, 0.095788f, -0.045430f, 0.010034f, -0.123798f, 0.016731f, -0.012505f, 0.115446f, 0.094341f, -0.039059f, 0.098713f, 0.046049f, 0.092844f, -0.082080f, -0.035697f, -0.135864f, -0.014133f, -0.013412f, -0.053066f, -0.110459f, -0.134158f, 0.067139f, 0.063243f, -0.080446f, -0.040321f, -0.058422f, 0.021510f, 0.103822f, 0.067842f, 0.117092f, 0.058198f, -0.011364f, -0.014178f, 0.055228f, -0.060104f, 0.073951f, 0.084434f, 0.016399f, -0.105488f, -0.103961f, -0.034464f, -0.130198f},
    {-0.124908f, 0.071102f, -0.020669f, -0.022115f, 0.000239f, -0.126466f, 0.049046f, -0.261235f, 0.110811f, -0.097997f, -0.027453f, 0.095010f, -0.045320f, -0.079579f, -0.241636f, -0.150435f, 0.000430f, 0.022841f, 0.098123f, 0.045628f, -0.018925f, -0.038264f, -0.086386f, -0.071957f, 0.101459f, -0.027889f, -0.041136f, 0.078296f, -0.035495f, -0.064151f, -0.024422f, -0.021333f, 0.077422f, -0.172437f, -0.021421f, -0.015811f, 0.002263f, 0.072467f, -0.127371f, 0.001776f, 0.011317f, -0.051347f, 0.049995f, 0.061372f, -0.095791f, 0.021764f, 0.100191f, -0.004752f, 0.059580f, 0.109205f, 0.009872f, 0.058582f, -0.088802f, -0.082648f, -0.125661f, 0.213097f, 0.015219f, 0.032545f, 0.113133f, 0.058318f, 0.129571f, -0.058398f, 0.002457f, 0.014256f},
    {0.014909f, -0.104158f, -0.103382f, -0.146665f, 0.015407f, -0.055630f, -0.027527f, 0.051651f, 0.053227f, -0.113107f, 0.024557f, 0.025139f, -0.038955f, -0.097144f, 0.056547f, 0.109679f, -0.019197f, -0.062247f, 0.075057f, 0.072309f, -0.001108f, 0.023059f, -0.068931f, -0.077514f, 0.070984f, 0.089650f, 0.098916f, -0.060348f, -0.074851f, 0.024985f, 0.003205f, 0.018934f, -0.051534f, 0.068533f, -0.118308f, 0.082463f, 0.026750f, -0.000800f, -0.004451f, 0.054045f, -0.090279f, -0.107014f, -0.003924f, 0.038179f, 0.058438f, 0.077816f, 0.058816f, 0.025387f, -0.147791f, 0.059413f, 0.019242f, 0.008793f, 0.075658f, -0.127040f, 0.056337f, -0.024276f, 0.045988f, -0.074554f, -0.100123f, 0.111854f, 0.055086f, 0.061941f, -0.130996f, -0.081501f},
    {-0.019698f, 0.083349f, -0.022864f, 0.085925f, -0.027814f, -0.088696f, -0.119100f, 0.038284f, 0.118855f, -0.059749f, -0.066364f, 0.038210f, -0.010581f, -0.123321f, 0.085235f, -0.035866f, 0.065747f, -0.037145f, 0.060376f, -0.066508f, 0.046761f, 0.097222f, -0.042281f, 0.019334f, 0.063412f, -0.007946f, 0.020843f, 0.074525f, 0.114560f, 0.023735f, 0.078784f, -0.116096f, 0.031590f, -0.056826f, 0.095276f, -0.111557f, 0.073207f, -0.100456f, -0.110402f, -0.045769f, -0.003687f, -0.097389f, -0.040766f, -0.083728f, -0.113440f, 0.069568f, -0.078222f, -0.039738f, 0.029120f, 0.080376f, -0.029920f, -0.088420f, -0.043805f, 0.095168f, 0.044285f, 0.089457f, -0.043728f, -0.026968f, -0.042336f, -0.039599f, -0.096991f, -0.034704f, -0.025987f, -0.105829f},
    {0.034658f, 0.061600f, 0.057004f, -0.096488f, 0.111877f, -0.105971f, 0.046844f, 0.097120f, -0.004943f, 0.084036f, -0.093119f, -0.069840f, -0.151728f, -0.046622f, -0.089304f, -0.050639f, -0.040880f, -0.076739f, -0.080352f, 0.018474f, -0.099725f, -0.090016f, -0.097945f, -0.124508f, 0.040147f, -0.123050f, -0.103069f, -0.021242f, -0.044665f, 0.085563f, -0.000966f, -0.095380f, 0.021096f, -0.055479f, -0.043805f, -0.120786f, -0.137721f, -0.070585f, -0.052163f, -0.145430f, -0.049215f, 0.032314f, 0.013691f, -0.152901f, -0.100576f, 0.017263f, 0.063687f, -0.102965f, -0.127618f, -0.006243f, 0.058838f, -0.099318f, -0.073285f, -0.093069f, -0.082171f, -0.068141f, -0.033846f, 0.028765f, 0.023720f, -0.081050f, 0.097218f, -0.060490f, -0.026303f, -0.088206f},
    {-0.116809f, -0.107977f, 0.069083f, 0.047674f, 0.087245f, -0.005181f, -0.064708f, -0.064316f, 0.124881f, -0.037659f, 0.087418f, 0.131368f, 0.095406f, 0.051550f, 0.058400f, 0.027182f, 0.116249f, -0.026821f, 0.085272f, 0.037628f, 0.080717f, -0.025937f, 0.011354f, -0.027102f, -0.101082f, -0.044361f, -0.027389f, 0.180349f, 0.192600f, 0.003279f, -0.008751f, -0.144982f, -0.113713f, -0.112650f, 0.124378f, 0.003207f, 0.053961f, 0.024035f, 0.026849f, -0.111202f, 0.030782f, -0.111451f, 0.008072f, 0.046627f, -0.186023f, -0.026095f, -0.086931f, 0.075333f, -0.036206f, 0.000310f, -0.100653f, 0.080326f, -0.034548f, 0.064975f, -0.114430f, 0.275533f, 0.135113f, 0.091247f, 0.078100f, 0.077591f, 0.023388f, -0.018681f, 0.084350f, -0.007029f},
    {-0.071026f, 0.004329f, -0.100488f, -0.007923f, 0.079646f, -0.161959f, -0.146214f, 0.127157f, 0.102721f, -0.084226f, 0.067495f, 0.258982f, -0.021270f, -0.072849f, -0.040581f, 0.079837f, 0.252099f, 0.037119f, 0.305956f, 0.195831f, 0.304768f, 0.114563f, -0.159911f, 0.341217f, -0.021131f, -0.032860f, 0.198702f, 0.236076f, 0.223979f, 0.276131f, -0.046672f, 0.091380f, -0.064263f, -0.163610f, -0.091665f, 0.188991f, -0.141371f, -0.064774f, -0.116949f, -0.186963f, 0.092097f, 0.090437f, 0.041529f, -0.032562f, 0.091987f, 0.044884f, -0.033758f, 0.076318f, 0.087107f, -0.065934f, -0.001215f, -0.088911f, -0.050175f, -0.153206f, -0.119588f, -0.156051f, 0.279834f, -0.076731f, 0.150690f, 0.163856f, 0.373004f, 0.064093f, -0.005211f, 0.061282f},
    {-0.096404f, -0.064822f, 0.091567f, -0.001089f, 0.032839f, 0.063907f, 0.082449f, -0.029637f, -0.110766f, 0.091914f, 0.118666f, 0.139538f, -0.067895f, -0.093134f, 0.132582f, 0.020438f, 0.202925f, -0.108210f, 0.157940f, -0.048099f, 0.139947f, -0.044799f, -0.035456f, 0.049028f, 0.024260f, 0.083785f, 0.197411f, 0.139596f, 0.172086f, 0.111858f, -0.026115f, -0.012548f, 0.056111f, -0.041271f, -0.024212f, 0.179871f, -0.146235f, -0.114110f, 0.019868f, -0.126525f, -0.072284f, 0.082594f, -0.013238f, 0.088420f, 0.023960f, -0.048268f, -0.123936f, 0.028125f, -0.032147f, 0.044752f, 0.003162f, -0.086002f, -0.049592f, -0.106244f, 0.075018f, -0.130562f, 0.117963f, -0.100166f, 0.214233f, 0.138090f, 0.114323f, -0.104354f, -0.006464f, -0.072686f},
    {0.121981f, 0.037110f, -0.009251f, -0.110504f, 0.010003f, -0.096292f, -0.090750f, 0.322597f, 0.121226f, 0.003319f, -0.104457f, 0.102064f, 0.024342f, -0.067230f, -0.074296f, 0.009475f, 0.019564f, 0.087862f, 0.083630f, 0.049529f, 0.042094f, 0.099740f, -0.024362f, 0.246006f, -0.129030f, -0.000090f, 0.177748f, 0.072569f, 0.213377f, 0.143364f, -0.008063f, 0.042323f, 0.027660f, 0.027995f, -0.045504f, 0.186090f, 0.105728f, 0.050171f, -0.124826f, 0.049571f, 0.025622f, -0.095589f, 0.018887f, 0.052472f, -0.111126f, -0.016978f, -0.022714f, -0.053864f, 0.039826f, -0.093279f, 0.041082f, -0.085363f, -0.035301f, -0.111359f, 0.084803f, -0.175424f, 0.137490f, 0.052132f, 0.055309f, 0.209823f, 0.116498f, -0.093108f, 0.038196f, -0.185317f},
    {-0.035925f, -0.084529f, 0.060670f, -0.029598f, -0.097137f, 0.001292f, 0.118244f, -0.124465f, -0.038720f, 0.013135f, -0.071567f, -0.057701f, 0.116623f, -0.130240f, -0.043637f, 0.103672f, -0.017255f, 0.099037f, 0.102928f, -0.100503f, 0.060909f, -0.068822f, 0.105585f, 0.086639f, 0.051341f, -0.086403f, 0.008628f, -0.026476f, -0.050117f, -0.073499f, 0.060210f, 0.024233f, 0.064477f, -0.068833f, -0.021984f, -0.016595f, -0.079416f, 0.040603f, -0.109413f, 0.036280f, -0.016006f, 0.078632f, -0.102380f, 0.015026f, -0.108773f, -0.053545f, 0.074099f, -0.120786f, 0.091870f, -0.029314f, -0.056785f, 0.018734f, 0.030051f, 0.013560f, 0.067969f, 0.032742f, -0.078000f, -0.114064f, 0.045484f, 0.120849f, 0.022560f, 0.029612f, 0.024099f, 0.089757f},
    {0.045970f, 0.018388f, -0.083073f, 0.161659f, 0.033059f, 0.149404f, -0.149697f, -1.459964f, 0.073748f, -0.101968f, -0.124700f, 0.179363f, 0.051187f, 0.010388f, -0.193415f, 0.438212f, 0.068019f, 0.105626f, 0.079694f, 0.187374f, 0.063568f, -0.033317f, 0.029437f, 0.214332f, 0.125512f, -0.216237f, 0.108096f, 0.150652f, 0.128032f, 0.161444f, -0.042644f, -0.139734f, 0.085500f, 0.022663f, -0.097987f, 0.082503f, 0.062300f, 0.171935f, -0.071084f, 0.081108f, -0.105219f, -0.032797f, -0.106216f, 0.010936f, -0.091144f, 0.060788f, 0.099905f, 0.124041f, -0.035794f, 0.059066f, -0.283572f, 0.084653f, 0.072922f, 0.088439f, 0.153197f, 0.508537f, 0.041276f, 0.025628f, -0.358463f, 0.172842f, 0.164246f, -0.105823f, 0.083950f, -0.232062f},
    {-0.031827f, 0.070270f, -0.070539f, -0.055550f, -0.020896f, -0.101704f, 0.077726f, 0.106627f, 0.098325f, -0.059774f, -0.116008f, -0.061357f, 0.079020f, -0.161750f, -0.027475f, -0.091615f, -0.082347f, 0.031701f, 0.054122f, -0.063774f, 0.110167f, -0.020594f, -0.020951f, -0.011912f, 0.045390f, -0.080865f, 0.021305f, 0.043745f, -0.101778f, -0.013858f, 0.098015f, 0.026476f, -0.147004f, -0.028425f, -0.059408f, 0.109166f, -0.017724f, -0.128475f, 0.022016f, 0.041745f, -0.041702f, 0.055854f, 0.041401f, -0.119261f, 0.103439f, -0.140095f, 0.028312f, 0.103498f, -0.095087f, -0.060588f, 0.059098f, 0.011905f, -0.127872f, -0.139957f, 0.052770f, -0.144804f, 0.079971f, 0.027636f, 0.135274f, 0.018247f, 0.106120f, 0.070619f, -0.027409f, -0.084814f},
    {-0.083600f, -0.113021f, 0.043288f, 0.114962f, 0.055138f, 0.079128f, -0.041996f, -1.104684f, -0.068659f, -0.072194f, -0.095582f, 0.094165f, 0.167488f, -0.060102f, -0.306443f, -0.448804f, 0.007592f, 0.032905f, 0.200731f, 0.116587f, -0.011685f, -0.066318f, -0.210359f, 0.066794f, 0.147745f, -0.050995f, 0.035873f, 0.190159f, -0.038015f, 0.002453f, -0.063015f, 0.252722f, -0.078421f, -0.104547f, 0.036575f, 0.180414f, -0.054797f, 0.236309f, 0.385845f, -0.044273f, 0.095670f, 0.100257f, -0.047170f, 0.120099f, -0.015394f, 0.158978f, 0.011529f, 0.017829f, -0.024267f, -0.134085f, 0.113865f, -0.072491f, 0.030156f, 0.022188f, -0.099061f, 0.167835f, -0.036891f, 0.125262f, -0.083170f, 0.133636f, -0.009107f, 0.042349f, -0.118603f, 0.343943f},
    {0.086913f, -0.084907f, 0.009132f, 0.010006f, -0.069267f, 0.067540f, -0.021956f, -0.045988f, -0.084305f, 0.024651f, -0.077137f, -0.011617f, 0.079134f, 0.073918f, -0.111541f, 0.121458f, 0.045957f, 0.015983f, -0.000021f, -0.113957f, -0.124558f, 0.120057f, -0.119666f, -0.053093f, 0.039593f, -0.096093f, 0.041806f, 0.107548f, 0.034019f, 0.037632f, 0.077037f, 0.037730f, -0.014777f, 0.091088f, -0.087532f, 0.048224f, 0.059400f, -0.044770f, -0.041323f, -0.102015f, 0.031690f, 0.056297f, -0.043865f, -0.034109f, 0.104600f, -0.124401f, -0.008099f, -0.016680f, -0.061288f, 0.005781f, 0.017293f, 0.109319f, 0.001514f, -0.062181f, 0.031993f, 0.054402f, -0.045071f, 0.084957f, -0.088271f, -0.088332f, -0.012456f, -0.073705f, -0.118350f, 0.064984f},
    {-0.087946f, 0.077742f, -0.105282f, -0.088501f, -0.007642f, 0.023205f, 0.080483f, -0.123147f, 0.086741f, 0.013511f, -0.025113f, 0.049955f, 0.019475f, -0.031879f, -0.068661f, 0.090811f, 0.051811f, -0.046433f, -0.119975f, -0.008763f, 0.118369f, -0.096533f, -0.110095f, -0.081247f, 0.069208f, 0.091438f, 0.045234f, -0.063912f, -0.013441f, 0.003919f, -0.065189f, -0.122282f, 0.054250f, -0.003510f, -0.014952f, -0.003265f, 0.114806f, -0.094617f, 0.093934f, 0.079806f, 0.009156f, -0.103382f, -0.073298f, 0.071674f, -0.111043f, -0.088656f, -0.002482f, 0.106170f, -0.114705f, -0.018649f, -0.056609f, 0.052504f, 0.097295f, -0.086714f, -0.018926f, -0.081428f, -0.031910f, 0.047890f, -0.019065f, 0.104744f, 0.000670f, -0.113265f, -0.070123f, 0.121387f},
    {-0.015141f, -0.079403f, -0.083936f, -0.119053f, -0.024717f, 0.157019f, -0.055500f, 1.401756f, -0.044703f, -0.032312f, 0.058073f, -0.023241f, 0.010787f, 0.001642f, 0.273742f, 0.724685f, -0.040045f, 0.001899f, -0.113834f, 0.113280f, 0.047374f, 0.039317f, 0.105385f, 0.098511f, -0.090956f, 0.174748f, 0.030586f, -0.098704f, -0.020696f, 0.036150f, 0.102006f, -0.134732f, 0.181354f, 0.125517f, 0.114769f, 0.119487f, 0.053475f, 0.000235f, -0.278436f, 0.221104f, 0.124857f, -0.135963f, -0.034150f, 0.066217f, -0.082732f, 0.028472f, 0.080542f, 0.061317f, -0.038501f, 0.132642f, -0.298444f, -0.007159f, 0.150173f, 0.133204f, 0.106691f, -0.030672f, -0.083358f, -0.033556f, -0.278016f, -0.083762f, 0.108267f, 0.146865f, 0.126176f, -0.329295f},
    {-0.116304f, -0.154402f, 0.033967f, -0.030731f, 0.043340f, -0.143533f, -0.041576f, -0.505208f, -0.054724f, 0.082955f, -0.108659f, 0.156849f, -0.032285f, 0.002803f, -0.134190f, 0.092662f, 0.173502f, 0.094339f, -0.014230f, 0.046086f, 0.174061f, 0.083098f, 0.005096f, 0.055459f, -0.135671f, -0.103192f, -0.037392f, 0.046279f, 0.206333f, 0.118813f, -0.050544f, 0.077976f, -0.165567f, -0.025828f, -0.109553f, 0.025468f, 0.060922f, -0.077290f, 0.092485f, 0.071172f, 0.064292f, 0.003407f, -0.022698f, -0.104784f, -0.049853f, 0.048673f, -0.003348f, 0.066589f, -0.058272f, -0.013743f, 0.051663f, -0.074040f, 0.035986f, 0.047758f, -0.076022f, -0.027550f, 0.142155f, -0.028096f, -0.122022f, 0.148885f, 0.163308f, -0.012601f, 0.025875f, 0.007619f},
    {0.091153f, -0.090459f, -0.123266f, 0.060736f, 0.082263f, -0.042748f, 0.073416f, -0.009579f, -0.083997f, 0.069728f, 0.073976f, -0.013168f, -0.065168f, -0.090693f, -0.121892f, 0.085446f, 0.052652f, 0.117019f, 0.078669f, -0.043342f, -0.052854f, 0.037411f, -0.114390f, -0.097379f, -0.071497f, -0.062825f, 0.087383f, 0.018585f, -0.083636f, -0.022263f, 0.011150f, 0.096574f, -0.042126f, 0.101952f, 0.108219f, -0.061064f, -0.041234f, 0.055508f, 0.114566f, -0.033679f, 0.120469f, 0.024847f, -0.075853f, -0.108465f, 0.061566f, -0.046727f, -0.054468f, 0.041022f, -0.028228f, 0.124086f, -0.080449f, 0.064909f, 0.098069f, -0.015835f, 0.038723f, -0.041304f, -0.002903f, -0.040052f, -0.091468f, 0.055621f, 0.076425f, -0.061399f, -0.042134f, -0.058588f},
    {0.120070f, -0.067658f, 0.103301f, -0.197056f, 0.088131f, 0.030119f, 0.093638f, -0.522414f, 0.093101f, -0.073528f, 0.106344f, -0.099680f, 0.154487f, -0.105648f, 0.143436f, -0.906271f, 0.147588f, -0.028485f, 0.022270f, -0.122818f, -0.034293f, 0.114793f, -0.059247f, -0.070496f, 0.075461f, 0.037334f, -0.079635f, 0.101708f, 0.056856f, -0.068490f, -0.017299f, 0.157230f, 0.019002f, -0.039708f, 0.017134f, 0.046250f, 0.022542f, -0.205631f, 0.039832f, 0.000417f, 0.146401f, 0.170454f, 0.060627f, -0.018230f, -0.106678f, -0.067680f, -0.019372f, -0.019015f, 0.016362f, 0.050148f, 0.464729f, 0.066711f, -0.023132f, -0.126486f, -0.066402f, -0.829356f, 0.078651f, 0.159599f, 0.579531f, 0.055545f, 0.042133f, 0.081291f, -0.004281f, 0.231641f},
    {0.028149f, -0.004769f, 0.111283f, -0.113049f, 0.051694f, -0.031551f, 0.026778f, -0.173779f, -0.113482f, -0.069445f, 0.017535f, 0.199086f, -0.101807f, -0.075782f, 0.019156f, 0.102071f, -0.009429f, 0.025555f, 0.206856f, 0.204756f, 0.060624f, 0.079096f, 0.097800f, -0.024141f, 0.026821f, -0.153414f, 0.050578f, 0.106504f, 0.121405f, 0.166831f, -0.043554f, -0.004019f, 0.049482f, -0.138147f, -0.041833f, 0.167625f, -0.103149f, 0.074608f, 0.037878f, -0.179500f, 0.095902f, -0.109824f, -0.023181f, 0.056880f, 0.045470f, 0.022683f, 0.044389f, 0.072631f, -0.036963f, -0.082268f, -0.097130f, 0.067734f, 0.028999f, 0.044440f, -0.073049f, -0.128277f, 0.149557f, -0.047188f, -0.067148f, 0.052018f, 0.090244f, -0.038173f, -0.056543f, 0.073196f},
    {-0.084130f, -0.097545f, 0.061324f, 0.197600f, -0.060711f, -0.059759f, 0.083171f, -0.405938f, -0.114126f, 0.105349f, 0.109225f, 0.032583f, 0.081237f, -0.039810f, -0.365681f, -0.342431f, 0.084157f, 0.091161f, 0.165389f, 0.213274f, 0.014391f, -0.011150f, 0.109309f, 0.013257f, 0.147709f, 0.090027f, 0.029814f, 0.142526f, 0.222860f, 0.003158f, 0.061758f, 0.218917f, -0.016646f, -0.173162f, -0.096668f, 0.224633f, -0.151037f, -0.639725f, 0.085597f, -0.266119f, -0.287463f, 0.141885f, -0.015221f, 0.047399f, -0.006268f, 0.127124f, 0.019931f, -0.080350f, 0.196574f, 0.000075f, -0.002131f, 0.006596f, -0.098666f, 0.038509f, -0.259439f, 0.364236f, 0.005094f, 0.016224f, 0.681997f, 0.159076f, 0.196752f, -0.118665f, -0.045094f, 0.332022f},
    {-0.032939f, -0.048242f, -0.008321f, -0.044060f, -0.078105f, -0.091942f, 0.045022f, -0.090869f, 0.022717f, 0.070430f, 0.050115f, 0.012931f, -0.057644f, -0.102846f, -0.138363f, 0.037228f, 0.111690f, 0.051635f, 0.117773f, -0.066426f, 0.114366f, 0.012567f, -0.011388f, -0.036378f, -0.044930f, -0.060714f, -0.084205f, -0.104014f, -0.107681f, -0.052746f, -0.069758f, 0.066539f, -0.136191f, 0.031814f, 0.033032f, 0.003609f, 0.034722f, -0.123629f, -0.014542f, -0.160888f, -0.058288f, -0.015022f, -0.043763f, 0.083722f, 0.123956f, 0.072392f, 0.042906f, -0.067272f, -0.155321f, -0.093328f, -0.073547f, 0.041051f, -0.020501f, -0.103450f, -0.151877f, -0.152499f, 0.072147f, 0.069813f, -0.135013f, 0.079233f, 0.020272f, -0.094516f, 0.023985f, 0.095001f},
    {-0.116099f, -0.045876f, 0.069466f, -0.087067f, -0.104549f, 0.050725f, 0.073595f, -0.084060f, 0.009023f, -0.047113f, -0.093050f, 0.221471f, -0.109226f, -0.132121f, -0.026892f, 0.006564f, 0.058618f, 0.024124f, 0.234123f, 0.115033f, 0.011620f, -0.023445f, 0.020408f, 0.195305f, 0.011761f, 0.052075f, 0.072255f, 0.130869f, 0.123715f, 0.120696f, 0.076110f, 0.002623f, -0.003384f, 0.056867f, 0.066122f, 0.106655f, -0.084309f, 0.063365f, 0.044519f, 0.055855f, -0.039677f, -0.007418f, -0.120879f, -0.139944f, -0.039859f, -0.001686f, 0.085920f, -0.043831f, 0.058036f, -0.019405f, -0.059691f, 0.086145f, 0.014373f, -0.134150f, -0.037060f, 0.201875f, -0.011783f, -0.093848f, 0.186650f, 0.102861f, 0.121114f, -0.123769f, -0.088992f, -0.030202f},
    {-0.101276f, 0.071626f, -0.132464f, 0.090025f, -0.077412f, -0.039343f, -0.012937f, 0.064091f, 0.108168f, 0.014637f, -0.113893f, 0.029438f, 0.105720f, 0.014277f, 0.008022f, -0.277063f, -0.016998f, -0.007837f, -0.094123f, 0.002973f, 0.052476f, -0.053813f, -0.033953f, 0.004313f, -0.137620f, -0.112324f, 0.033145f, -0.026699f, -0.059887f, -0.044971f, 0.051310f, -0.040786f, -0.048529f, -0.126788f, -0.085433f, 0.043295f, 0.022309f, 0.107083f, 0.119417f, -0.042525f, 0.005362f, 0.007282f, 0.046222f, 0.095129f, -0.096946f, 0.045056f, 0.027566f, -0.059700f, 0.002843f, -0.096429f, 0.185387f, 0.021706f, -0.091082f, 0.027819f, 0.085111f, 0.136511f, -0.165177f, -0.051819f, -0.286042f, 0.038566f, 0.019211f, 0.081276f, -0.153547f, 0.025997f},
    {0.119883f, -0.073260f, -0.100589f, -0.121024f, 0.029467f, -0.043378f, 0.035823f, 1.302689f, 0.039311f, 0.000539f, 0.044260f, -0.038698f, 0.322128f, -0.165732f, 0.172767f, -1.389961f, -0.104300f, 0.098266f, -0.000675f, -0.064174f, -0.049445f, -0.028920f, 1.461316f, -0.128188f, -0.152089f, 0.372590f, 0.036282f, 0.011789f, 0.021865f, 0.079063f, 0.081229f, -0.025690f, -0.033418f, 0.066786f, -0.034368f, 0.076568f, -0.249039f, -0.452286f, -0.069710f, 0.049533f, 0.314633f, 0.106417f, 0.101455f, -0.132000f, -0.083197f, 0.009590f, 0.100162f, 0.107979f, 0.212580f, 0.053234f, 0.630546f, 0.044558f, 0.014846f, 0.123002f, -0.301993f, -0.061456f, -0.046889f, 0.426032f, 0.780422f, -0.098846f, -0.066109f, 0.016224f, 0.013275f, 0.139220f},
    {0.106232f, -0.064296f, 0.024525f, -0.230233f, 0.120112f, 0.142729f, -0.134398f, 1.205399f, 0.002373f, 0.132808f, -0.113902f, -0.066334f, -0.094609f, 0.055783f, 0.437752f, 0.718356f, -0.139848f, -0.109501f, -0.122232f, 0.087689f, -0.053424f, 0.073250f, 1.010096f, -0.042125f, 0.041039f, 0.462136f, -0.111431f, -0.044001f, -0.026793f, 0.086559f, -0.012453f, -0.189995f, 0.150808f, 0.016528f, -0.052591f, -0.006464f, 0.154650f, -0.464365f, -0.338080f, 0.225076f, -0.034461f, -0.022899f, -0.020235f, 0.020582f, 0.116973f, 0.005485f, -0.103508f, 0.009871f, -0.242828f, 0.156603f, -0.375173f, 0.043783f, 0.040341f, -0.028025f, 0.116149f, -0.453532f, -0.036189f, -0.204735f, -0.239082f, -0.030594f, -0.080524f, -0.057935f, 0.073028f, -0.382652f},
    {0.019628f, -0.093890f, -0.124032f, 0.091946f, -0.043838f, 0.075493f, -0.054012f, 0.005772f, -0.049303f, -0.104744f, -0.109487f, 0.189741f, 0.049461f, -0.080252f, -0.062655f, -0.006782f, 0.130309f, -0.023839f, 0.037754f, 0.014644f, 0.228191f, 0.009550f, 0.117412f, 0.120836f, 0.028848f, 0.057240f, 0.126300f, 0.037671f, 0.066875f, 0.135775f, 0.031229f, 0.041691f, 0.025927f, -0.115834f, 0.063466f, 0.209395f, -0.025092f, -0.092017f, 0.099849f, -0.067881f, -0.109135f, -0.101976f, 0.068098f, 0.016471f, 0.031144f, 0.050135f, -0.044209f, -0.047319f, -0.056192f, -0.036621f, -0.053010f, 0.044949f, 0.018909f, -0.076659f, -0.127800f, 0.023706f, 0.233673f, -0.066760f, 0.077775f, 0.012514f, 0.036714f, -0.007623f, -0.087534f, -0.035426f},
    {0.050280f, 0.108276f, -0.113696f, -0.116205f, -0.021016f, -0.061135f, -0.046145f, 0.763638f, 0.035864f, -0.080538f, -0.010481f, 0.094570f, -0.129570f, 0.025785f, 0.334965f, 0.400214f, 0.188381f, -0.111034f, 0.068372f, -0.077856f, 0.006881f, -0.019316f, -0.029126f, 0.041629f, -0.125791f, 0.366223f, 0.088648f, -0.016174f, 0.022290f, 0.120618f, 0.083909f, -0.131431f, 0.164748f, 0.176799f, 0.099691f, -0.097212f, 0.144306f, -0.062188f, -0.458905f, 0.243457f, 0.052267f, 0.075114f, -0.066645f, -0.016244f, -0.033636f, -0.031503f, -0.106446f, -0.058900f, -0.069733f, -0.021672f, 0.026562f, -0.057350f, 0.160113f, 0.041977f, 0.166592f, -0.510184f, 0.059299f, -0.040722f, -0.117649f, 0.024259f, -0.102334f, 0.101126f, 0.115741f, -0.326664f},
    {-0.099664f, 0.054155f, -0.125516f, 0.032914f, -0.103495f, -0.009644f, -0.118133f, 0.038017f, 0.005258f, -0.110675f, -0.122795f, 0.070393f, -0.001435f, -0.104262f, -0.113929f, 0.057766f, 0.046773f, -0.112425f, 0.042684f, -0.078955f, -0.110002f, -0.042219f, -0.049538f, -0.065618f, -0.127593f, -0.116819f, -0.024291f, -0.017469f, 0.051490f, 0.058674f, -0.029286f, -0.102316f, -0.062458f, -0.090009f, 0.021419f, 0.075605f, -0.013041f, 0.004202f, 0.056849f, -0.055918f, 0.072803f, -0.080224f, 0.036639f, -0.149343f, -0.062029f, -0.005575f, -0.042476f, -0.047579f, 0.044939f, 0.093587f, 0.070526f, 0.001967f, 0.094098f, -0.021286f, -0.063141f, -0.066973f, -0.010169f, -0.048479f, -0.075820f, -0.017872f, 0.031377f, 0.043666f, -0.138275f, -0.047631f},
    {0.091899f, -0.074344f, -0.121215f, 0.088808f, 0.081683f, -0.020863f, 0.105520f, 0.084755f, 0.007312f, -0.114790f, -0.075523f, 0.014175f, -0.005023f, 0.034945f, 0.082254f, -0.066405f, -0.071922f, -0.097253f, 0.027674f, 0.009709f, 0.021236f, 0.070289f, 0.092810f, -0.045126f, -0.004002f, -0.080223f, 0.047640f, -0.123640f, -0.031101f, 0.107914f, -0.030339f, 0.097226f, -0.093901f, 0.050849f, -0.080574f, 0.095015f, -0.044273f, -0.101966f, -0.058236f, -0.067453f, -0.017008f, 0.033245f, 0.107053f, -0.105223f, -0.076491f, -0.031189f, -0.052385f, -0.121404f, 0.015572f, 0.104314f, 0.074636f, -0.059089f, -0.041830f, -0.035561f, 0.005789f, 0.026220f, 0.087648f, -0.112316f, 0.103982f, -0.068376f, -0.107239f, -0.121887f, -0.002960f, -0.030081f},
    {0.021223f, 0.059282f, 0.068454f, -0.187584f, 0.110333f, -0.050726f, -0.020610f, -0.814564f, -0.103732f, -0.108842f, -0.045629f, -0.038464f, 0.029065f, -0.103268f, 0.282194f, -0.535141f, -0.041308f, 0.029813f, -0.074509f, -0.028166f, -0.047741f, 0.065305f, -0.068666f, 0.083806f, -0.018659f, -0.261976f, 0.053623f, -0.105338f, 0.051241f, -0.121200f, -0.039214f, 0.093865f, 0.015026f, -0.094579f, -0.082118f, 0.018594f, 0.087756f, -0.184827f, 0.122493f, -0.111269f, -0.035816f, 0.115099f, 0.088311f, 0.022776f, 0.057644f, 0.015658f, 0.005272f, 0.123817f, -0.114684f, 0.017534f, 0.291360f, -0.057321f, 0.048512f, -0.116634f, -0.076994f, -0.486747f, -0.116053f, 0.107773f, 0.528119f, -0.048622f, 0.006146f, -0.104232f, -0.145455f, 0.366681f},
    {-0.119771f, -0.007166f, -0.118153f, 0.058280f, 0.030535f, -0.048872f, 0.111605f, 0.046967f, 0.091649f, 0.052920f, -0.034695f, -0.086096f, -0.094235f, -0.023986f, -0.121624f, -0.108611f, -0.059396f, -0.080996f, 0.071068f, 0.117557f, -0.065491f, -0.072502f, -0.008439f, -0.056818f, -0.031396f, 0.042938f, 0.061979f, 0.042925f, -0.034572f, -0.043979f, -0.013857f, -0.053881f, -0.005483f, 0.070020f, -0.028903f, 0.083057f, 0.078335f, -0.028361f, -0.022219f, -0.094843f, 0.120441f, -0.053626f, -0.072353f, -0.119921f, -0.000599f, -0.106511f, -0.098617f, -0.000887f, 0.118644f, -0.005467f, -0.029912f, 0.091710f, 0.058766f, -0.052635f, -0.119927f, 0.048682f, 0.104852f, -0.099024f, 0.008059f, -0.029079f, -0.060656f, -0.018704f, -0.077462f, -0.036950f},
    {-0.010411f, 0.070109f, -0.123064f, -0.014772f, 0.115978f, 0.102069f, -0.038387f, 0.061109f, -0.085066f, -0.037414f, -0.116486f, 0.056518f, 0.005619f, -0.012783f, -0.029661f, 0.051120f, -0.096001f, -0.033173f, 0.073383f, 0.100203f, -0.057727f, -0.039851f, 0.119234f, -0.023435f, 0.088882f, -0.098194f, 0.065903f, 0.046122f, 0.101270f, 0.008536f, 0.023742f, 0.058421f, 0.001902f, 0.013046f, 0.066472f, 0.109570f, 0.119507f, -0.023404f, 0.020531f, 0.052589f, -0.121778f, -0.038808f, -0.063548f, -0.102866f, -0.019246f, 0.031196f, -0.001993f, -0.080669f, 0.101416f, 0.091394f, 0.073704f, -0.013089f, -0.087214f, 0.010560f, -0.091449f, -0.088304f, 0.051825f, 0.091492f, -0.089842f, 0.030057f, -0.108223f, -0.040981f, 0.064010f, -0.097089f},
    {-0.006455f, -0.042242f, -0.101270f, -0.026612f, 0.105308f, -0.113099f, -0.118825f, -0.028753f, -0.098662f, -0.085607f, 0.049242f, -0.105637f, -0.109653f, -0.073233f, 0.122844f, 0.060026f, -0.123343f, 0.104079f, 0.039709f, -0.064728f, -0.058068f, -0.033384f, 0.068825f, -0.121739f, -0.057495f, 0.068564f, 0.095067f, 0.087453f, 0.053029f, -0.104750f, -0.041183f, -0.077747f, -0.082201f, 0.073064f, -0.072771f, -0.059585f, 0.068790f, 0.027368f, 0.024709f, 0.029426f, -0.116005f, -0.038700f, 0.034677f, 0.031829f, -0.061990f, -0.112633f, -0.012758f, 0.087985f, 0.030974f, 0.032209f, -0.025510f, 0.092238f, 0.101368f, 0.119696f, 0.048572f, 0.038909f, -0.120896f, -0.056320f, -0.080997f, 0.013198f, -0.067819f, 0.111988f, -0.088471f, -0.056662f},
    {-0.046199f, -0.071652f, 0.096388f, -0.066933f, 0.035326f, -0.041551f, 0.031622f, -0.378828f, -0.067206f, 0.004077f, -0.045098f, 0.016403f, -0.030469f, -0.070418f, -0.021481f, 0.157473f, 0.089888f, 0.034653f, -0.042230f, 0.088417f, -0.039679f, 0.054948f, -0.051327f, 0.071829f, -0.119638f, -0.076007f, -0.003284f, -0.027911f, 0.083032f, -0.027836f, 0.116962f, 0.040472f, 0.013324f, -0.067579f, -0.040358f, -0.000762f, 0.045961f, -0.010968f, 0.080443f, 0.025925f, 0.074656f, 0.009933f, 0.039429f, 0.101522f, -0.032348f, -0.091393f, -0.082041f, -0.096268f, -0.061731f, 0.048984f, 0.050077f, 0.092018f, -0.058733f, 0.093642f, -0.027455f, 0.100117f, -0.084280f, -0.106957f, -0.267998f, 0.018616f, -0.115599f, -0.101456f, 0.075445f, -0.187373f},
    {0.085403f, -0.039072f, -0.005289f, -0.081166f, 0.052397f, -0.030209f, 0.100607f, 0.038968f, 0.052229f, -0.060150f, 0.116170f, -0.101633f, -0.069183f, 0.024985f, -0.075457f, 0.026447f, -0.156457f, 0.061462f, 0.027936f, -0.104805f, -0.118275f, -0.029500f, -0.071788f, 0.083217f, -0.092908f, -0.099517f, 0.080685f, 0.097251f, -0.037665f, 0.068247f, -0.101504f, 0.063738f, 0.093933f, -0.099793f, -0.056646f, -0.068176f, 0.085743f, 0.101727f, -0.037034f, 0.059945f, 0.005661f, 0.070320f, 0.004186f, -0.032015f, -0.155892f, -0.041929f, 0.057351f, -0.010321f, 0.000399f, 0.060134f, 0.003534f, 0.092976f, 0.010288f, -0.039393f, 0.054895f, -0.054736f, -0.084150f, 0.038527f, -0.017858f, 0.087287f, 0.124322f, 0.050451f, 0.030249f, -0.160829f},
    {0.080428f, -0.130331f, -0.054044f, 0.138032f, 0.083896f, -0.098790f, -0.067749f, 0.227142f, -0.119599f, 0.035642f, -0.093043f, 0.076750f, -0.045743f, 0.117347f, -0.046889f, 0.165092f, 0.033754f, -0.026199f, 0.090787f, 0.223812f, 0.223679f, 0.083088f, 0.077346f, 0.169365f, 0.105393f, 0.090954f, 0.108014f, 0.244817f, 0.108709f, 0.079161f, -0.120704f, 0.003830f, -0.057516f, -0.053932f, -0.068582f, 0.145743f, 0.011243f, -0.008811f, -0.018693f, -0.093624f, -0.179160f, 0.084662f, 0.013237f, 0.032460f, 0.046201f, -0.034839f, 0.089846f, 0.044931f, 0.035503f, -0.045017f, -0.065873f, -0.100625f, -0.137521f, 0.063926f, -0.033218f, 0.309269f, 0.157598f, 0.045854f, 0.291189f, 0.229757f, 0.123958f, -0.058300f, -0.052299f, 0.297895f},
};
